svm_type epsilon_svr
kernel_type linear
nr_class 2
total_sv 366
rho -0.8915845757176758
probA 0.3304928014974303
SV
1.7411011457443237 1:0.933333333 2:0.875 3:0.535 4:0.295081967 5:0.315789474 6:0.671717172 7:0.216748768 8:0.056338028 9:1.0 10:0.058823529 11:0.575757576 12:0.341463415 13:0.225688073 14:0.385964912 15:0.5 
1.7411011457443237 1:0.4 2:0.375 3:0.095 4:0.721311475 5:0.736842105 6:0.287878788 7:0.088669951 8:0.830985915 9:0.125 10:0.647058824 11:0.03030303 12:0.804878049 13:0.031192661 14:0.157894737 15:0.5 
1.7411011457443237 1:1.0 2:1.0 3:1.0 4:0.93442623 5:0.210526316 6:0.97979798 7:0.640394089 8:0.014084507 9:1.0 10:1.0 11:1.0 12:1.0 13:0.744954128 14:1.0 15:0.75 
1.7411011457443237 1:1.0 2:0.9375 3:1.0 4:0.852459016 5:0.263157895 6:0.974747475 7:0.704433498 8:0.014084507 9:1.0 10:1.0 11:1.0 12:1.0 13:0.667889908 14:0.833333333 15:0.75 
1.7411011457443237 1:0.933333333 2:0.875 3:0.725 4:0.163934426 5:0.315789474 6:0.53030303 7:0.334975369 8:0.281690141 9:0.125 10:0.117647059 11:0.575757576 12:0.341463415 13:0.405504587 14:0.596491228 15:0.5 
1.7411011457443237 1:0.933333333 2:0.875 3:0.88 4:0.213114754 5:0.315789474 6:0.747474747 7:0.251231527 8:0.267605634 9:0.125 10:0.117647059 11:0.575757576 12:0.341463415 13:0.47706422 14:0.447368421 15:0.5 
1.7411011457443237 1:0.533333333 2:0.5 3:0.125 4:0.655737705 5:0.631578947 6:0.338383838 7:0.054187192 8:0.873239437 9:0.125 10:0.529411765 11:0.212121212 12:0.731707317 13:0.055045872 14:0.096491228 15:0.5 
1.7411011457443237 1:0.933333333 2:0.875 3:0.55 4:0.196721311 5:0.315789474 6:0.439393939 7:0.270935961 8:0.323943662 9:1.0 10:0.058823529 11:0.909090909 12:0.536585366 13:0.244036697 14:0.48245614 15:0.5 
1.7411011457443237 1:0.266666667 2:0.25 3:0.04 4:0.573770492 5:0.842105263 6:0.106060606 7:0.019704433 8:0.943661972 9:0.125 10:0.764705882 11:0.121212121 12:0.902439024 13:0.014678899 14:0.035087719 15:0.5 
1.7411011457443237 1:0.933333333 2:0.875 3:0.505 4:0.196721311 5:0.315789474 6:0.409090909 7:0.280788177 8:0.323943662 9:1.0 10:0.058823529 11:0.909090909 12:0.536585366 13:0.209174312 14:0.526315789 15:0.5 
1.7411011457443237 1:0.933333333 2:0.875 3:0.85 4:0.049180328 5:0.210526316 6:0.196969697 7:0.389162562 8:0.323943662 9:1.0 10:0.058823529 11:1.0 12:1.0 13:0.411009174 14:0.99122807 15:0.5 
1.7411011457443237 1:0.933333333 2:0.875 3:0.35 4:0.213114754 5:0.315789474 6:0.297979798 7:0.236453202 8:0.295774648 9:1.0 10:0.058823529 11:0.848484848 12:0.487804878 13:0.539449541 14:0.421052632 15:0.5 
1.7411011457443237 1:1.0 2:1.0 3:1.0 4:0.950819672 5:0.210526316 6:0.984848485 7:0.729064039 8:0.014084507 9:1.0 10:1.0 11:1.0 12:1.0 13:0.689908257 14:1.0 15:0.75 
1.7411011457443237 1:1.0 2:1.0 3:1.0 4:0.409836066 5:0.210526316 6:0.96969697 7:0.916256158 8:0.014084507 9:1.0 10:1.0 11:1.0 12:1.0 13:0.866055046 14:1.0 15:0.75 
1.7411011457443237 1:0.4 2:0.375 3:0.075 4:0.721311475 5:0.736842105 6:0.252525253 7:0.103448276 8:0.845070423 9:0.125 10:0.647058824 11:0.03030303 12:0.804878049 13:0.029357798 14:0.184210526 15:0.5 
1.7411011457443237 1:1.0 2:1.0 3:1.0 4:0.409836066 5:0.210526316 6:0.96969697 7:0.901477833 8:0.014084507 9:1.0 10:1.0 11:1.0 12:1.0 13:0.882568807 14:1.0 15:0.75 
1.7411011457443237 1:1.0 2:0.9375 3:0.97 4:0.131147541 5:0.263157895 6:0.585858586 7:0.403940887 8:0.014084507 9:0.125 10:1.0 11:1.0 12:0.024390244 13:0.570642202 14:0.719298246 15:0.5 
-1.7411011457443237 1:1.0 2:1.0 3:1.0 4:0.409836066 5:0.210526316 6:0.96969697 7:0.945812808 8:0.014084507 9:1.0 10:1.0 11:1.0 12:1.0 13:0.908256881 14:1.0 15:0.75 
-1.7411011457443237 1:0.933333333 2:0.875 3:0.415 4:0.163934426 5:0.315789474 6:0.282828283 7:0.374384236 8:0.323943662 9:0.125 10:0.117647059 11:0.575757576 12:0.341463415 13:0.455045872 14:0.666666667 15:0.5 
-1.7411011457443237 1:1.0 2:1.0 3:1.0 4:0.852459016 5:0.210526316 6:0.974747475 7:0.75862069 8:0.014084507 9:1.0 10:1.0 11:1.0 12:1.0 13:0.88440367 14:1.0 15:0.75 
-1.7411011457443237 1:1.0 2:1.0 3:1.0 4:0.131147541 5:0.210526316 6:0.606060606 7:0.822660099 8:0.014084507 9:1.0 10:1.0 11:1.0 12:1.0 13:0.755963303 14:1.0 15:0.75 
-1.7411011457443237 1:1.0 2:1.0 3:1.0 4:0.016393443 5:0.105263158 6:0.090909091 7:0.965517241 8:0.014084507 9:1.0 10:1.0 11:1.0 12:1.0 13:0.831192661 14:1.0 15:0.75 
-1.7411011457443237 1:1.0 2:1.0 3:1.0 4:0.983606557 5:0.210526316 6:0.994949495 7:0.591133005 8:0.014084507 9:1.0 10:1.0 11:1.0 12:1.0 13:0.84587156 14:1.0 15:0.75 
-1.7411011457443237 1:0.933333333 2:0.8125 3:0.3 4:0.081967213 5:0.368421053 6:0.111111111 7:0.374384236 8:0.450704225 9:1.0 10:0.058823529 11:0.909090909 12:0.536585366 13:0.170642202 14:0.666666667 15:0.5 
-1.7411011457443237 1:0.933333333 2:0.875 3:0.855 4:0.131147541 5:0.315789474 6:0.47979798 7:0.339901478 8:0.309859155 9:1.0 10:0.058823529 11:0.787878788 12:0.43902439 13:0.286238532 14:0.605263158 15:0.5 
1.3101939777662601 1:0.933333333 2:0.875 3:0.76 4:0.295081967 5:0.315789474 6:0.823232323 7:0.221674877 8:0.126760563 9:1.0 10:0.058823529 11:0.333333333 12:0.146341463 13:0.456880734 14:0.394736842 15:0.5 
-1.7411011457443237 1:1.0 2:1.0 3:1.0 4:0.852459016 5:0.210526316 6:0.974747475 7:0.802955665 8:0.014084507 9:1.0 10:1.0 11:1.0 12:1.0 13:0.952293578 14:1.0 15:0.75 
-1.7411011457443237 1:0.933333333 2:0.875 3:0.18 4:0.278688525 5:0.315789474 6:0.237373737 7:0.206896552 8:0.084507042 9:1.0 10:0.058823529 11:0.818181818 12:0.463414634 13:0.234862385 14:0.368421053 15:0.5 
-1.7411011457443237 1:0.466666667 2:0.4375 3:0.245 4:0.901639344 5:0.684210526 6:0.818181818 7:0.083743842 8:0.76056338 9:0.125 10:0.588235294 11:0.181818182 12:0.780487805 13:0.044036697 14:0.149122807 15:0.5 
-1.7411011457443237 1:0.666666667 2:0.625 3:0.375 4:0.704918033 5:0.526315789 6:0.893939394 7:0.078817734 8:0.577464789 9:0.125 10:0.411764706 11:0.03030303 12:0.585365854 13:0.088073394 14:0.140350877 15:0.5 
-1.7411011457443237 1:0.933333333 2:0.875 3:0.415 4:0.163934426 5:0.315789474 6:0.282828283 7:0.374384236 8:0.323943662 9:0.125 10:0.117647059 11:0.575757576 12:0.341463415 13:0.48440367 14:0.666666667 15:0.5 
-1.7411011457443237 1:0.8 2:0.75 3:0.16 4:0.180327869 5:0.421052632 6:0.126262626 7:0.482758621 8:0.521126761 9:1.0 10:1.0 11:1.0 12:1.0 13:0.113761468 14:0.798245614 15:0.75 
-1.7411011457443237 1:0.933333333 2:0.875 3:0.57 4:0.196721311 5:0.315789474 6:0.47979798 7:0.261083744 8:0.323943662 9:1.0 10:0.058823529 11:0.909090909 12:0.536585366 13:0.231192661 14:0.464912281 15:0.5 
-1.7411011457443237 1:1.0 2:1.0 3:1.0 4:0.016393443 5:0.105263158 6:0.090909091 7:0.965517241 8:0.014084507 9:1.0 10:1.0 11:1.0 12:1.0 13:0.822018349 14:1.0 15:0.75 
-1.7411011457443237 1:1.0 2:1.0 3:1.0 4:0.131147541 5:0.210526316 6:0.606060606 7:0.798029557 8:0.014084507 9:1.0 10:1.0 11:1.0 12:1.0 13:0.702752294 14:1.0 15:0.75 
-1.7411011457443237 1:0.933333333 2:0.875 3:0.44 4:0.262295082 5:0.315789474 6:0.505050505 7:0.201970443 8:0.14084507 9:1.0 10:0.058823529 11:0.575757576 12:0.341463415 13:0.482568807 14:0.359649123 15:0.5 
-1.7411011457443237 1:1.0 2:1.0 3:1.0 4:0.967213115 5:0.210526316 6:0.98989899 7:0.522167488 8:0.014084507 9:1.0 10:1.0 11:1.0 12:1.0 13:0.783486239 14:1.0 15:0.75 
-1.7411011457443237 1:1.0 2:1.0 3:1.0 4:0.409836066 5:0.210526316 6:0.96969697 7:0.945812808 8:0.014084507 9:1.0 10:1.0 11:1.0 12:1.0 13:0.908256881 14:1.0 15:0.75 
1.7411011457443237 1:1.0 2:1.0 3:1.0 4:0.016393443 5:0.105263158 6:0.090909091 7:0.950738916 8:0.014084507 9:1.0 10:1.0 11:1.0 12:1.0 13:0.680733945 14:1.0 15:0.75 
1.7411011457443237 1:0.933333333 2:0.875 3:0.765 4:0.163934426 5:0.315789474 6:0.570707071 7:0.339901478 8:0.281690141 9:1.0 10:0.058823529 11:0.575757576 12:0.341463415 13:0.337614679 14:0.605263158 15:0.5 
1.7411011457443237 1:0.666666667 2:0.625 3:0.115 4:0.229508197 5:0.526315789 6:0.116161616 7:0.142857143 8:0.690140845 9:0.125 10:0.411764706 11:0.272727273 12:0.634146341 13:0.080733945 14:0.254385965 15:0.5 
1.7411011457443237 1:0.266666667 2:0.25 3:0.035 4:0.540983607 5:0.842105263 6:0.095959596 7:0.024630542 8:0.971830986 9:0.125 10:0.764705882 11:0.121212121 12:0.902439024 13:0.012844037 14:0.043859649 15:0.5 
1.7411011457443237 1:0.933333333 2:0.875 3:0.85 4:0.049180328 5:0.210526316 6:0.196969697 7:0.389162562 8:0.323943662 9:1.0 10:0.058823529 11:1.0 12:1.0 13:0.453211009 14:0.99122807 15:0.5 
1.7411011457443237 1:0.933333333 2:0.875 3:0.85 4:0.049180328 5:0.210526316 6:0.196969697 7:0.39408867 8:0.323943662 9:1.0 10:0.058823529 11:1.0 12:1.0 13:0.374311927 14:0.99122807 15:0.5 
1.7411011457443237 1:0.933333333 2:0.8125 3:0.21 4:0.06557377 5:0.368421053 6:0.075757576 7:0.374384236 8:0.309859155 9:0.375 10:1.0 11:0.878787879 12:0.341463415 13:0.183486239 14:0.666666667 15:0.5 
1.0289966557664172 1:0.933333333 2:0.875 3:0.085 4:0.131147541 5:0.315789474 6:0.060606061 7:0.354679803 8:0.422535211 9:0.125 10:1.0 11:1.0 12:0.341463415 13:0.201834862 14:0.692982456 15:0.5 
-1.7411011457443237 1:0.933333333 2:0.8125 3:0.255 4:0.032786885 5:0.368421053 6:0.035353535 7:0.773399015 8:0.309859155 9:1.0 10:1.0 11:1.0 12:1.0 13:0.119266055 14:0.859649123 15:0.75 
1.7411011457443237 1:1.0 2:1.0 3:1.0 4:0.852459016 5:0.210526316 6:0.974747475 7:0.738916256 8:0.014084507 9:1.0 10:1.0 11:1.0 12:1.0 13:0.704587156 14:1.0 15:0.75 
1.7411011457443237 1:1.0 2:1.0 3:1.0 4:0.409836066 5:0.210526316 6:0.96969697 7:0.931034483 8:0.014084507 9:1.0 10:1.0 11:1.0 12:1.0 13:0.788990826 14:1.0 15:0.75 
1.7411011457443237 1:0.866666667 2:0.8125 3:0.605 4:0.327868852 5:0.368421053 6:0.803030303 7:0.201970443 8:0.338028169 9:0.125 10:0.176470588 11:0.424242424 12:0.487804878 13:0.130275229 14:0.359649123 15:0.5 
1.7411011457443237 1:1.0 2:1.0 3:1.0 4:0.016393443 5:0.105263158 6:0.090909091 7:0.950738916 8:0.014084507 9:1.0 10:1.0 11:1.0 12:1.0 13:0.678899083 14:1.0 15:0.75 
1.7411011457443237 1:1.0 2:1.0 3:1.0 4:0.93442623 5:0.210526316 6:0.97979798 7:0.650246305 8:0.014084507 9:1.0 10:1.0 11:1.0 12:1.0 13:1.0 14:1.0 15:0.75 
1.7411011457443237 1:1.0 2:1.0 3:1.0 4:0.93442623 5:0.210526316 6:0.97979798 7:0.581280788 8:0.014084507 9:1.0 10:1.0 11:1.0 12:1.0 13:0.719266055 14:1.0 15:0.75 
1.7411011457443237 1:1.0 2:1.0 3:1.0 4:0.016393443 5:0.157894737 6:0.090909091 7:0.911330049 8:0.014084507 9:1.0 10:1.0 11:1.0 12:1.0 13:0.893577982 14:1.0 15:0.75 
1.7411011457443237 1:0.733333333 2:0.6875 3:0.235 4:0.360655738 5:0.473684211 6:0.348484848 7:0.192118227 8:0.591549296 9:0.125 10:0.294117647 11:0.303030303 12:0.56097561 13:0.093577982 14:0.342105263 15:0.5 
-1.7411011457443237 1:0.933333333 2:0.8125 3:0.255 4:0.032786885 5:0.368421053 6:0.035353535 7:0.753694581 8:0.309859155 9:1.0 10:1.0 11:1.0 12:1.0 13:0.11559633 14:0.850877193 15:0.75 
1.7411011457443237 1:0.933333333 2:0.875 3:0.84 4:0.163934426 5:0.315789474 6:0.626262626 7:0.320197044 8:0.281690141 9:1.0 10:0.058823529 11:0.575757576 12:0.341463415 13:0.28440367 14:0.570175439 15:0.5 
-1.7411011457443237 1:0.933333333 2:0.875 3:0.855 4:0.131147541 5:0.315789474 6:0.47979798 7:0.325123153 8:0.309859155 9:1.0 10:0.058823529 11:0.787878788 12:0.43902439 13:0.352293578 14:0.578947368 15:0.5 
-1.7411011457443237 1:0.933333333 2:0.875 3:0.815 4:0.196721311 5:0.315789474 6:0.686868687 7:0.330049261 8:0.056338028 9:1.0 10:0.058823529 11:0.363636364 12:0.170731707 13:0.396330275 14:0.587719298 15:0.5 
-1.7411011457443237 1:0.6 2:0.5625 3:0.11 4:0.344262295 5:0.578947368 6:0.186868687 7:0.083743842 8:0.816901408 9:0.25 10:0.470588235 11:0.575757576 12:0.56097561 13:0.053211009 14:0.149122807 15:0.5 
-1.7411011457443237 1:1.0 2:1.0 3:1.0 4:0.852459016 5:0.210526316 6:0.974747475 7:0.502463054 8:0.014084507 9:1.0 10:1.0 11:1.0 12:1.0 13:0.669724771 14:1.0 15:0.75 
-0.4136501669028091 1:0.866666667 2:0.8125 3:0.87 4:0.459016393 5:0.368421053 6:0.964646465 7:0.206896552 8:0.169014085 9:0.125 10:0.176470588 11:0.03030303 12:0.43902439 13:0.155963303 14:0.368421053 15:0.5 
-1.7411011457443237 1:0.933333333 2:0.875 3:0.485 4:0.196721311 5:0.315789474 6:0.393939394 7:0.315270936 8:0.098591549 9:1.0 10:0.058823529 11:0.727272727 12:0.390243902 13:0.497247706 14:0.561403509 15:0.5 
-1.7411011457443237 1:1.0 2:0.9375 3:0.97 4:0.131147541 5:0.263157895 6:0.585858586 7:0.403940887 8:0.014084507 9:0.125 10:1.0 11:1.0 12:0.024390244 13:0.566972477 14:0.719298246 15:0.5 
-1.7411011457443237 1:1.0 2:1.0 3:1.0 4:0.016393443 5:0.105263158 6:0.090909091 7:0.97044335 8:0.014084507 9:1.0 10:1.0 11:1.0 12:1.0 13:0.809174312 14:1.0 15:0.75 
-1.7411011457443237 1:0.933333333 2:0.875 3:0.855 4:0.131147541 5:0.315789474 6:0.47979798 7:0.310344828 8:0.309859155 9:1.0 10:0.058823529 11:0.787878788 12:0.43902439 13:0.328440367 14:0.552631579 15:0.5 
-1.7411011457443237 1:0.8 2:0.75 3:0.315 4:0.180327869 5:0.421052632 6:0.257575758 7:0.487684729 8:0.521126761 9:1.0 10:1.0 11:1.0 12:1.0 13:0.110091743 14:0.807017544 15:0.75 
-1.7411011457443237 1:0.933333333 2:0.875 3:0.43 4:0.098360656 5:0.315789474 6:0.202020202 7:0.251231527 8:0.211267606 9:1.0 10:0.058823529 11:0.424242424 12:0.219512195 13:0.434862385 14:0.447368421 15:0.5 
-1.7411011457443237 1:1.0 2:1.0 3:1.0 4:0.131147541 5:0.210526316 6:0.606060606 7:0.743842365 8:0.014084507 9:1.0 10:1.0 11:1.0 12:1.0 13:0.746788991 14:1.0 15:0.75 
-1.7411011457443237 1:0.933333333 2:0.875 3:0.85 4:0.049180328 5:0.210526316 6:0.196969697 7:0.39408867 8:0.323943662 9:1.0 10:0.058823529 11:1.0 12:1.0 13:0.401834862 14:0.99122807 15:0.5 
-1.7411011457443237 1:0.333333333 2:0.3125 3:0.12 4:0.819672131 5:0.789473684 6:0.404040404 7:0.123152709 8:0.774647887 9:0.125 10:0.705882353 11:0.151515152 12:0.853658537 13:0.022018349 14:0.219298246 15:0.5 
-0.09525282317779642 1:1.0 2:1.0 3:1.0 4:0.131147541 5:0.052631579 6:0.606060606 7:0.9408867 8:0.014084507 9:1.0 10:1.0 11:1.0 12:1.0 13:0.985321101 14:1.0 15:0.75 
-1.7411011457443237 1:0.933333333 2:0.875 3:0.85 4:0.049180328 5:0.210526316 6:0.196969697 7:0.39408867 8:0.323943662 9:1.0 10:0.058823529 11:1.0 12:1.0 13:0.394495413 14:0.99122807 15:0.5 
-1.7411011457443237 1:0.933333333 2:0.875 3:0.48 4:0.196721311 5:0.315789474 6:0.388888889 7:0.300492611 8:0.098591549 9:1.0 10:0.058823529 11:0.727272727 12:0.390243902 13:0.533944954 14:0.535087719 15:0.5 
-1.7411011457443237 1:0.933333333 2:0.875 3:0.45 4:0.278688525 5:0.315789474 6:0.570707071 7:0.201970443 8:0.197183099 9:1.0 10:0.058823529 11:0.545454545 12:0.317073171 13:0.280733945 14:0.359649123 15:0.5 
-0.13728588423681487 1:0.933333333 2:0.875 3:0.84 4:0.163934426 5:0.315789474 6:0.626262626 7:0.295566502 8:0.281690141 9:1.0 10:0.058823529 11:0.575757576 12:0.341463415 13:0.321100917 14:0.526315789 15:0.5 
-1.7411011457443237 1:0.933333333 2:0.875 3:0.42 4:0.295081967 5:0.315789474 6:0.550505051 7:0.192118227 8:0.056338028 9:1.0 10:0.058823529 11:0.575757576 12:0.341463415 13:0.27706422 14:0.342105263 15:0.5 
-1.7411011457443237 1:0.8 2:0.5625 3:0.045 4:0.06557377 5:0.578947368 6:0.01010101 7:0.290640394 8:0.661971831 9:0.75 10:1.0 11:1.0 12:0.756097561 13:0.073394495 14:0.51754386 15:0.5 
1.7411011457443237 1:1.0 2:1.0 3:1.0 4:0.016393443 5:0.157894737 6:0.090909091 7:0.896551724 8:0.014084507 9:1.0 10:1.0 11:1.0 12:1.0 13:0.735779817 14:1.0 15:0.75 
1.7411011457443237 1:1.0 2:1.0 3:1.0 4:0.016393443 5:0.157894737 6:0.090909091 7:0.955665025 8:0.014084507 9:1.0 10:1.0 11:1.0 12:1.0 13:0.902752294 14:1.0 15:0.75 
1.7411011457443237 1:1.0 2:1.0 3:1.0 4:0.016393443 5:0.105263158 6:0.090909091 7:0.965517241 8:0.014084507 9:1.0 10:1.0 11:1.0 12:1.0 13:0.803669725 14:1.0 15:0.75 
1.7411011457443237 1:0.933333333 2:0.8125 3:0.215 4:0.06557377 5:0.368421053 6:0.080808081 7:0.379310345 8:0.309859155 9:0.375 10:1.0 11:0.878787879 12:0.341463415 13:0.166972477 14:0.675438596 15:0.5 
1.7411011457443237 1:1.0 2:1.0 3:1.0 4:0.409836066 5:0.210526316 6:0.96969697 7:0.793103448 8:0.014084507 9:1.0 10:1.0 11:1.0 12:1.0 13:0.965137615 14:1.0 15:0.75 
1.7411011457443237 1:0.933333333 2:0.875 3:0.915 4:0.049180328 5:0.315789474 6:0.222222222 7:0.931034483 8:0.422535211 9:1.0 10:1.0 11:1.0 12:1.0 13:0.541284404 14:0.921052632 15:0.75 
1.7411011457443237 1:0.666666667 2:0.625 3:0.19 4:0.672131148 5:0.526315789 6:0.590909091 7:0.172413793 8:0.478873239 9:0.125 10:0.411764706 11:0.03030303 12:0.585365854 13:0.078899083 14:0.307017544 15:0.5 
1.7411011457443237 1:0.933333333 2:0.875 3:0.085 4:0.131147541 5:0.315789474 6:0.060606061 7:0.354679803 8:0.422535211 9:0.125 10:1.0 11:1.0 12:0.341463415 13:0.203669725 14:0.692982456 15:0.5 
1.7411011457443237 1:0.933333333 2:0.875 3:0.72 4:0.163934426 5:0.315789474 6:0.525252525 7:0.374384236 8:0.281690141 9:0.125 10:0.117647059 11:0.575757576 12:0.341463415 13:0.416513761 14:0.666666667 15:0.5 
1.7411011457443237 1:0.933333333 2:0.875 3:0.85 4:0.049180328 5:0.210526316 6:0.196969697 7:0.389162562 8:0.323943662 9:1.0 10:0.058823529 11:1.0 12:1.0 13:0.444036697 14:0.99122807 15:0.5 
1.7411011457443237 1:0.933333333 2:0.875 3:0.735 4:0.163934426 5:0.315789474 6:0.54040404 7:0.384236453 8:0.281690141 9:0.125 10:0.117647059 11:0.575757576 12:0.341463415 13:0.326605505 14:0.684210526 15:0.5 
1.7411011457443237 1:1.0 2:1.0 3:1.0 4:0.93442623 5:0.210526316 6:0.97979798 7:0.674876847 8:0.014084507 9:1.0 10:1.0 11:1.0 12:1.0 13:0.880733945 14:1.0 15:0.75 
1.7411011457443237 1:0.933333333 2:0.875 3:0.345 4:0.213114754 5:0.315789474 6:0.292929293 7:0.251231527 8:0.295774648 9:1.0 10:0.058823529 11:0.848484848 12:0.487804878 13:0.293577982 14:0.447368421 15:0.5 
1.7411011457443237 1:1.0 2:1.0 3:1.0 4:0.93442623 5:0.210526316 6:0.97979798 7:0.650246305 8:0.014084507 9:1.0 10:1.0 11:1.0 12:1.0 13:1.0 14:1.0 15:0.75 
1.7411011457443237 1:0.133333333 2:0.125 3:0.055 4:0.918032787 5:0.947368421 6:0.242424242 7:0.044334975 8:0.929577465 9:0.125 10:0.882352941 11:0.060606061 12:0.951219512 13:0.005504587 14:0.078947368 15:0.5 
1.7411011457443237 1:0.933333333 2:0.875 3:0.54 4:0.262295082 5:0.315789474 6:0.631313131 7:0.266009852 8:0.112676056 9:1.0 10:0.058823529 11:0.787878788 12:0.43902439 13:0.258715596 14:0.473684211 15:0.5 
1.7411011457443237 1:1.0 2:1.0 3:1.0 4:0.016393443 5:0.157894737 6:0.090909091 7:0.955665025 8:0.014084507 9:1.0 10:1.0 11:1.0 12:1.0 13:0.897247706 14:1.0 15:0.75 
1.7411011457443237 1:0.466666667 2:0.4375 3:0.275 4:0.557377049 5:0.684210526 6:0.656565657 7:0.443349754 8:0.85915493 9:1.0 10:1.0 11:1.0 12:1.0 13:0.036697248 14:0.771929825 15:0.75 
1.7411011457443237 1:0.666666667 2:0.625 3:0.175 4:0.672131148 5:0.526315789 6:0.52020202 7:0.172413793 8:0.492957746 9:0.125 10:0.411764706 11:0.03030303 12:0.585365854 13:0.07706422 14:0.307017544 15:0.5 
-1.7411011457443237 1:0.666666667 2:0.625 3:0.39 4:0.754098361 5:0.526315789 6:0.914141414 7:0.157635468 8:0.507042254 9:0.125 10:0.411764706 11:0.272727273 12:0.634146341 13:0.089908257 14:0.280701754 15:0.5 
-1.7411011457443237 1:0.466666667 2:0.4375 3:0.28 4:0.868852459 5:0.684210526 6:0.843434343 7:0.137931034 8:0.633802817 9:0.125 10:0.588235294 11:0.181818182 12:0.780487805 13:0.047706422 14:0.245614035 15:0.5 
-1.7411011457443237 1:0.6 2:0.5625 3:0.13 4:0.37704918 5:0.578947368 6:0.232323232 7:0.088669951 8:0.802816901 9:0.125 10:0.470588235 11:0.03030303 12:0.658536585 13:0.058715596 14:0.157894737 15:0.5 
-1.7411011457443237 1:0.6 2:0.5625 3:0.165 4:0.475409836 5:0.578947368 6:0.318181818 7:0.054187192 8:0.788732394 9:0.125 10:0.470588235 11:0.03030303 12:0.658536585 13:0.064220183 14:0.096491228 15:0.5 
-1.7411011457443237 1:0.933333333 2:0.875 3:0.84 4:0.163934426 5:0.315789474 6:0.626262626 7:0.266009852 8:0.281690141 9:1.0 10:0.058823529 11:0.575757576 12:0.341463415 13:0.264220183 14:0.473684211 15:0.5 
-1.7411011457443237 1:1.0 2:1.0 3:1.0 4:0.852459016 5:0.210526316 6:0.974747475 7:0.640394089 8:0.014084507 9:1.0 10:1.0 11:1.0 12:1.0 13:0.693577982 14:1.0 15:0.75 
-1.7411011457443237 1:0.933333333 2:0.8125 3:0.25 4:0.081967213 5:0.368421053 6:0.101010101 7:0.349753695 8:0.323943662 9:0.5 10:1.0 11:1.0 12:0.43902439 13:0.196330275 14:0.622807018 15:0.5 
-1.7411011457443237 1:0.333333333 2:0.3125 3:0.14 4:0.819672131 5:0.789473684 6:0.494949495 7:0.128078818 8:0.774647887 9:0.125 10:0.705882353 11:0.151515152 12:0.853658537 13:0.023853211 14:0.228070175 15:0.5 
-1.7411011457443237 1:0.933333333 2:0.875 3:0.415 4:0.163934426 5:0.315789474 6:0.282828283 7:0.374384236 8:0.323943662 9:0.125 10:0.117647059 11:0.575757576 12:0.341463415 13:0.475229358 14:0.666666667 15:0.5 
-1.7411011457443237 1:1.0 2:1.0 3:1.0 4:0.93442623 5:0.210526316 6:0.97979798 7:0.655172414 8:0.014084507 9:1.0 10:1.0 11:1.0 12:1.0 13:0.856880734 14:1.0 15:0.75 
-1.7411011457443237 1:1.0 2:1.0 3:1.0 4:0.016393443 5:0.157894737 6:0.090909091 7:0.950738916 8:0.014084507 9:1.0 10:1.0 11:1.0 12:1.0 13:0.899082569 14:1.0 15:0.75 
-1.7411011457443237 1:1.0 2:1.0 3:1.0 4:0.852459016 5:0.210526316 6:0.974747475 7:0.78817734 8:0.014084507 9:1.0 10:1.0 11:1.0 12:1.0 13:0.913761468 14:1.0 15:0.75 
-1.7411011457443237 1:1.0 2:1.0 3:1.0 4:0.983606557 5:0.210526316 6:0.994949495 7:0.512315271 8:0.014084507 9:1.0 10:1.0 11:1.0 12:1.0 13:0.717431193 14:1.0 15:0.75 
1.7411011457443237 1:1.0 2:1.0 3:1.0 4:0.409836066 5:0.210526316 6:0.96969697 7:0.522167488 8:0.014084507 9:1.0 10:1.0 11:1.0 12:1.0 13:0.805504587 14:1.0 15:0.75 
-1.7411011457443237 1:0.933333333 2:0.875 3:0.85 4:0.049180328 5:0.210526316 6:0.196969697 7:0.399014778 8:0.323943662 9:1.0 10:0.058823529 11:1.0 12:1.0 13:0.366972477 14:0.99122807 15:0.5 
-1.7411011457443237 1:0.933333333 2:0.875 3:0.69 4:0.131147541 5:0.315789474 6:0.358585859 7:0.300492611 8:0.422535211 9:1.0 10:0.058823529 11:1.0 12:1.0 13:0.218348624 14:0.535087719 15:0.5 
-1.7411011457443237 1:0.933333333 2:0.875 3:0.62 4:0.131147541 5:0.315789474 6:0.333333333 7:0.374384236 8:0.422535211 9:1.0 10:0.058823529 11:1.0 12:1.0 13:0.521100917 14:0.666666667 15:0.5 
-1.7411011457443237 1:1.0 2:1.0 3:1.0 4:0.409836066 5:0.210526316 6:0.96969697 7:0.945812808 8:0.014084507 9:1.0 10:1.0 11:1.0 12:1.0 13:0.911926606 14:1.0 15:0.75 
0.07504003668726007 1:1.0 2:1.0 3:1.0 4:0.409836066 5:0.210526316 6:0.96969697 7:0.596059113 8:0.014084507 9:1.0 10:1.0 11:1.0 12:1.0 13:0.8 14:1.0 15:0.75 
1.7411011457443237 1:0.933333333 2:0.875 3:0.49 4:0.163934426 5:0.315789474 6:0.323232323 7:0.384236453 8:0.197183099 9:1.0 10:0.058823529 11:0.848484848 12:0.487804878 13:0.466055046 14:0.684210526 15:0.5 
1.7411011457443237 1:0.933333333 2:0.875 3:0.555 4:0.196721311 5:0.315789474 6:0.449494949 7:0.266009852 8:0.323943662 9:1.0 10:0.058823529 11:0.909090909 12:0.536585366 13:0.223853211 14:0.473684211 15:0.5 
1.7411011457443237 1:0.933333333 2:0.875 3:0.465 4:0.163934426 5:0.315789474 6:0.308080808 7:0.266009852 8:0.281690141 9:1.0 10:0.058823529 11:0.878787879 12:0.512195122 13:0.528440367 14:0.473684211 15:0.5 
1.7411011457443237 1:0.933333333 2:0.875 3:0.84 4:0.163934426 5:0.315789474 6:0.626262626 7:0.325123153 8:0.281690141 9:1.0 10:0.058823529 11:0.575757576 12:0.341463415 13:0.300917431 14:0.578947368 15:0.5 
1.7411011457443237 1:0.933333333 2:0.875 3:0.545 4:0.295081967 5:0.315789474 6:0.691919192 7:0.231527094 8:0.056338028 9:1.0 10:0.058823529 11:0.575757576 12:0.341463415 13:0.255045872 14:0.412280702 15:0.5 
1.7411011457443237 1:1.0 2:1.0 3:1.0 4:0.409836066 5:0.210526316 6:0.96969697 7:0.911330049 8:0.014084507 9:1.0 10:1.0 11:1.0 12:1.0 13:0.906422018 14:1.0 15:0.75 
1.7411011457443237 1:0.933333333 2:0.875 3:0.91 4:0.049180328 5:0.315789474 6:0.217171717 7:0.921182266 8:0.422535211 9:1.0 10:1.0 11:1.0 12:1.0 13:0.544954128 14:0.912280702 15:0.75 
1.7411011457443237 1:1.0 2:1.0 3:1.0 4:0.93442623 5:0.210526316 6:0.97979798 7:0.674876847 8:0.014084507 9:1.0 10:1.0 11:1.0 12:1.0 13:0.880733945 14:1.0 15:0.75 
1.7411011457443237 1:0.933333333 2:0.875 3:0.85 4:0.049180328 5:0.210526316 6:0.196969697 7:0.389162562 8:0.323943662 9:1.0 10:0.058823529 11:1.0 12:1.0 13:0.431192661 14:0.99122807 15:0.5 
-1.7411011457443237 1:0.933333333 2:0.8125 3:0.135 4:0.032786885 5:0.368421053 6:0.025252525 7:0.990147783 8:0.422535211 9:1.0 10:1.0 11:1.0 12:1.0 13:0.117431193 14:0.956140351 15:1.0 
0.5847050519389999 1:0.866666667 2:0.75 3:0.025 4:0.131147541 5:0.421052632 6:0.015151515 7:0.275862069 8:0.535211268 9:0.5 10:1.0 11:1.0 12:0.43902439 13:0.099082569 14:0.535087719 15:0.5 
-0.6332217328982599 1:0.866666667 2:0.8125 3:0.105 4:0.147540984 5:0.368421053 6:0.085858586 7:0.497536946 8:0.464788732 9:1.0 10:1.0 11:1.0 12:1.0 13:0.12293578 14:0.824561404 15:0.75 
1.7411011457443237 1:0.866666667 2:0.8125 3:0.595 4:0.327868852 5:0.368421053 6:0.782828283 7:0.216748768 8:0.338028169 9:0.125 10:0.176470588 11:0.424242424 12:0.487804878 13:0.141284404 14:0.385964912 15:0.5 
1.7411011457443237 1:1.0 2:1.0 3:1.0 4:0.409836066 5:0.210526316 6:0.96969697 7:0.916256158 8:0.014084507 9:1.0 10:1.0 11:1.0 12:1.0 13:0.866055046 14:1.0 15:0.75 
1.7411011457443237 1:1.0 2:1.0 3:1.0 4:0.983606557 5:0.210526316 6:0.994949495 7:0.566502463 8:0.014084507 9:1.0 10:1.0 11:1.0 12:1.0 13:0.724770642 14:1.0 15:0.75 
1.7411011457443237 1:1.0 2:0.9375 3:0.97 4:0.131147541 5:0.263157895 6:0.585858586 7:0.403940887 8:0.014084507 9:0.125 10:1.0 11:1.0 12:0.024390244 13:0.559633028 14:0.719298246 15:0.5 
1.7411011457443237 1:0.2 2:0.1875 3:0.01 4:0.393442623 5:0.894736842 6:0.02020202 7:0.009852217 8:0.985915493 9:0.125 10:0.823529412 11:0.090909091 12:0.926829268 13:0.011009174 14:0.01754386 15:0.5 
1.7411011457443237 1:1.0 2:1.0 3:1.0 4:0.409836066 5:0.210526316 6:0.96969697 7:0.596059113 8:0.014084507 9:1.0 10:1.0 11:1.0 12:1.0 13:0.8 14:1.0 15:0.75 
-1.7411011457443237 1:0.6 2:0.5625 3:0.23 4:0.836065574 5:0.578947368 6:0.772727273 7:0.078817734 8:0.704225352 9:0.125 10:0.470588235 11:0.242424242 12:0.707317073 13:0.060550459 14:0.140350877 15:0.5 
-1.7411011457443237 1:1.0 2:1.0 3:1.0 4:0.852459016 5:0.210526316 6:0.974747475 7:0.75862069 8:0.014084507 9:1.0 10:1.0 11:1.0 12:1.0 13:0.919266055 14:1.0 15:0.75 
-1.7411011457443237 1:1.0 2:0.9375 3:0.995 4:0.049180328 5:0.263157895 6:0.227272727 7:0.84729064 8:0.014084507 9:1.0 10:1.0 11:1.0 12:1.0 13:0.673394495 14:0.868421053 15:0.75 
-1.7411011457443237 1:0.8 2:0.75 3:0.16 4:0.180327869 5:0.421052632 6:0.126262626 7:0.492610837 8:0.521126761 9:1.0 10:1.0 11:1.0 12:1.0 13:0.111926606 14:0.815789474 15:0.75 
-1.7411011457443237 1:0.933333333 2:0.875 3:0.85 4:0.049180328 5:0.210526316 6:0.196969697 7:0.399014778 8:0.323943662 9:1.0 10:0.058823529 11:1.0 12:1.0 13:0.366972477 14:0.99122807 15:0.5 
-1.7411011457443237 1:1.0 2:1.0 3:1.0 4:0.409836066 5:0.210526316 6:0.96969697 7:0.842364532 8:0.014084507 9:1.0 10:1.0 11:1.0 12:1.0 13:0.739449541 14:1.0 15:0.75 
-1.7411011457443237 1:0.933333333 2:0.875 3:0.635 4:0.213114754 5:0.315789474 6:0.616161616 7:0.256157635 8:0.070422535 9:1.0 10:0.058823529 11:0.575757576 12:0.341463415 13:0.306422018 14:0.456140351 15:0.5 
-1.7411011457443237 1:1.0 2:1.0 3:1.0 4:0.967213115 5:0.210526316 6:0.98989899 7:0.517241379 8:0.014084507 9:1.0 10:1.0 11:1.0 12:1.0 13:0.752293578 14:1.0 15:0.75 
-1.7411011457443237 1:1.0 2:1.0 3:1.0 4:0.131147541 5:0.052631579 6:0.606060606 7:0.9408867 8:0.014084507 9:1.0 10:1.0 11:1.0 12:1.0 13:0.966972477 14:1.0 15:0.75 
-1.7411011457443237 1:0.933333333 2:0.875 3:0.715 4:0.131147541 5:0.315789474 6:0.383838384 7:0.384236453 8:0.309859155 9:0.125 10:0.058823529 11:0.575757576 12:0.048780488 13:0.422018349 14:0.684210526 15:0.5 
-1.7411011457443237 1:1.0 2:0.9375 3:0.97 4:0.131147541 5:0.263157895 6:0.585858586 7:0.403940887 8:0.014084507 9:0.125 10:1.0 11:1.0 12:0.024390244 13:0.565137615 14:0.719298246 15:0.5 
-1.7411011457443237 1:1.0 2:0.9375 3:0.955 4:0.131147541 5:0.263157895 6:0.565656566 7:0.389162562 8:0.014084507 9:0.125 10:1.0 11:1.0 12:0.024390244 13:0.56146789 14:0.692982456 15:0.5 
-1.7411011457443237 1:1.0 2:1.0 3:1.0 4:0.983606557 5:0.210526316 6:0.994949495 7:0.512315271 8:0.014084507 9:1.0 10:1.0 11:1.0 12:1.0 13:0.717431193 14:1.0 15:0.75 
-1.7411011457443237 1:0.933333333 2:0.875 3:0.83 4:0.196721311 5:0.315789474 6:0.702020202 7:0.344827586 8:0.056338028 9:1.0 10:0.058823529 11:0.363636364 12:0.170731707 13:0.363302752 14:0.614035088 15:0.5 
-1.7411011457443237 1:1.0 2:1.0 3:1.0 4:0.852459016 5:0.210526316 6:0.974747475 7:0.650246305 8:0.014084507 9:1.0 10:1.0 11:1.0 12:1.0 13:0.713761468 14:1.0 15:0.75 
-1.7411011457443237 1:1.0 2:1.0 3:1.0 4:0.131147541 5:0.210526316 6:0.606060606 7:0.84729064 8:0.014084507 9:1.0 10:1.0 11:1.0 12:1.0 13:0.886238532 14:1.0 15:0.75 
1.7411011457443237 1:0.933333333 2:0.875 3:0.745 4:0.213114754 5:0.315789474 6:0.676767677 7:0.256157635 8:0.211267606 9:1.0 10:0.058823529 11:0.424242424 12:0.219512195 13:0.513761468 14:0.456140351 15:0.5 
-1.7411011457443237 1:1.0 2:1.0 3:1.0 4:0.131147541 5:0.210526316 6:0.606060606 7:0.709359606 8:0.014084507 9:1.0 10:1.0 11:1.0 12:1.0 13:0.781651376 14:1.0 15:0.75 
-1.7411011457443237 1:1.0 2:1.0 3:1.0 4:0.131147541 5:0.210526316 6:0.606060606 7:0.935960591 8:0.014084507 9:1.0 10:1.0 11:1.0 12:1.0 13:0.801834862 14:1.0 15:0.75 
-1.7411011457443237 1:0.6 2:0.5625 3:0.31 4:0.770491803 5:0.578947368 6:0.838383838 7:0.123152709 8:0.647887324 9:0.125 10:0.470588235 11:0.242424242 12:0.707317073 13:0.071559633 14:0.219298246 15:0.5 
1.7411011457443237 1:1.0 2:1.0 3:1.0 4:0.852459016 5:0.210526316 6:0.974747475 7:0.738916256 8:0.014084507 9:1.0 10:1.0 11:1.0 12:1.0 13:0.768807339 14:1.0 15:0.75 
1.7411011457443237 1:0.933333333 2:0.8125 3:0.15 4:0.06557377 5:0.368421053 6:0.045454545 7:0.379310345 8:0.422535211 9:0.625 10:1.0 11:1.0 12:0.512195122 13:0.16146789 14:0.675438596 15:0.5 
1.7411011457443237 1:1.0 2:1.0 3:1.0 4:0.409836066 5:0.210526316 6:0.96969697 7:0.926108374 8:0.014084507 9:1.0 10:1.0 11:1.0 12:1.0 13:0.840366972 14:1.0 15:0.75 
-1.7411011457443237 1:0.933333333 2:0.8125 3:0.26 4:0.032786885 5:0.368421053 6:0.04040404 7:0.738916256 8:0.309859155 9:1.0 10:1.0 11:1.0 12:1.0 13:0.121100917 14:0.842105263 15:0.75 
1.7411011457443237 1:0.866666667 2:0.8125 3:0.675 4:0.147540984 5:0.368421053 6:0.414141414 7:0.472906404 8:0.464788732 9:1.0 10:1.0 11:1.0 12:1.0 13:0.152293578 14:0.789473684 15:0.75 
1.7411011457443237 1:0.533333333 2:0.5 3:0.17 4:0.639344262 5:0.631578947 6:0.444444444 7:0.093596059 8:0.887323944 9:0.125 10:0.529411765 11:0.212121212 12:0.731707317 13:0.051376147 14:0.166666667 15:0.5 
1.7411011457443237 1:0.666666667 2:0.625 3:0.265 4:0.426229508 5:0.526315789 6:0.484848485 7:0.128078818 8:0.61971831 9:0.125 10:0.411764706 11:0.272727273 12:0.634146341 13:0.082568807 14:0.228070175 15:0.5 
1.7411011457443237 1:0.933333333 2:0.875 3:0.85 4:0.131147541 5:0.315789474 6:0.474747475 7:0.305418719 8:0.197183099 9:1.0 10:0.058823529 11:0.787878788 12:0.43902439 13:0.304587156 14:0.543859649 15:0.5 
1.7411011457443237 1:1.0 2:1.0 3:1.0 4:0.016393443 5:0.105263158 6:0.090909091 7:0.960591133 8:0.014084507 9:1.0 10:1.0 11:1.0 12:1.0 13:0.847706422 14:1.0 15:0.75 
1.7411011457443237 1:1.0 2:1.0 3:1.0 4:0.131147541 5:0.210526316 6:0.606060606 7:0.714285714 8:0.014084507 9:1.0 10:1.0 11:1.0 12:1.0 13:0.776146789 14:1.0 15:0.75 
1.7411011457443237 1:0.933333333 2:0.8125 3:0.34 4:0.081967213 5:0.368421053 6:0.121212121 7:0.266009852 8:0.366197183 9:1.0 10:0.058823529 11:0.787878788 12:0.43902439 13:0.163302752 14:0.473684211 15:0.5 
1.7411011457443237 1:1.0 2:1.0 3:1.0 4:0.93442623 5:0.210526316 6:0.97979798 7:0.571428571 8:0.014084507 9:1.0 10:1.0 11:1.0 12:1.0 13:0.730275229 14:1.0 15:0.75 
1.7411011457443237 1:1.0 2:1.0 3:1.0 4:0.409836066 5:0.210526316 6:0.96969697 7:0.812807882 8:0.014084507 9:1.0 10:1.0 11:1.0 12:1.0 13:0.766972477 14:1.0 15:0.75 
1.7411011457443237 1:1.0 2:1.0 3:1.0 4:0.016393443 5:0.105263158 6:0.090909091 7:0.965517241 8:0.014084507 9:1.0 10:1.0 11:1.0 12:1.0 13:0.818348624 14:1.0 15:0.75 
1.7411011457443237 1:1.0 2:1.0 3:1.0 4:0.016393443 5:0.157894737 6:0.090909091 7:0.906403941 8:0.014084507 9:1.0 10:1.0 11:1.0 12:1.0 13:0.779816514 14:1.0 15:0.75 
1.7411011457443237 1:1.0 2:1.0 3:1.0 4:0.016393443 5:0.105263158 6:0.090909091 7:0.960591133 8:0.014084507 9:1.0 10:1.0 11:1.0 12:1.0 13:0.836697248 14:1.0 15:0.75 
-1.7411011457443237 1:0.933333333 2:0.875 3:0.84 4:0.163934426 5:0.315789474 6:0.626262626 7:0.280788177 8:0.281690141 9:1.0 10:0.058823529 11:0.575757576 12:0.341463415 13:0.308256881 14:0.5 15:0.5 
-0.3912689838074075 1:1.0 2:1.0 3:1.0 4:0.950819672 5:0.210526316 6:0.984848485 7:0.645320197 8:0.014084507 9:1.0 10:1.0 11:1.0 12:1.0 13:0.891743119 14:1.0 15:0.75 
-1.7411011457443237 1:1.0 2:1.0 3:1.0 4:0.852459016 5:0.210526316 6:0.974747475 7:0.655172414 8:0.014084507 9:1.0 10:1.0 11:1.0 12:1.0 13:0.862385321 14:1.0 15:0.75 
-1.7411011457443237 1:0.8 2:0.75 3:0.495 4:0.606557377 5:0.421052632 6:0.924242424 7:0.15270936 8:0.394366197 9:0.125 10:0.235294118 11:0.03030303 12:0.512195122 13:0.108256881 14:0.271929825 15:0.5 
-1.7411011457443237 1:1.0 2:1.0 3:1.0 4:0.852459016 5:0.210526316 6:0.974747475 7:0.81773399 8:0.014084507 9:1.0 10:1.0 11:1.0 12:1.0 13:0.825688073 14:1.0 15:0.75 
-1.7411011457443237 1:1.0 2:1.0 3:1.0 4:0.016393443 5:0.105263158 6:0.090909091 7:0.965517241 8:0.014084507 9:1.0 10:1.0 11:1.0 12:1.0 13:0.823853211 14:1.0 15:0.75 
-1.7411011457443237 1:0.933333333 2:0.875 3:0.71 4:0.131147541 5:0.315789474 6:0.373737374 7:0.379310345 8:0.309859155 9:0.125 10:0.058823529 11:0.575757576 12:0.048780488 13:0.451376147 14:0.675438596 15:0.5 
-1.7411011457443237 1:0.933333333 2:0.8125 3:0.385 4:0.081967213 5:0.368421053 6:0.156565657 7:0.349753695 8:0.281690141 9:0.5 10:1.0 11:1.0 12:0.43902439 13:0.188990826 14:0.622807018 15:0.5 
-1.7411011457443237 1:1.0 2:1.0 3:1.0 4:0.93442623 5:0.210526316 6:0.97979798 7:0.684729064 8:0.014084507 9:1.0 10:1.0 11:1.0 12:1.0 13:0.878899083 14:1.0 15:0.75 
-1.7411011457443237 1:0.933333333 2:0.875 3:0.405 4:0.131147541 5:0.315789474 6:0.247474747 7:0.389162562 8:0.309859155 9:0.125 10:0.117647059 11:0.575757576 12:0.341463415 13:0.35412844 14:0.692982456 15:0.5 
-1.7411011457443237 1:0.933333333 2:0.875 3:0.855 4:0.131147541 5:0.315789474 6:0.47979798 7:0.36453202 8:0.309859155 9:1.0 10:0.058823529 11:0.787878788 12:0.43902439 13:0.289908257 14:0.649122807 15:0.5 
-1.7411011457443237 1:0.466666667 2:0.4375 3:0.245 4:0.901639344 5:0.684210526 6:0.818181818 7:0.068965517 8:0.76056338 9:0.125 10:0.588235294 11:0.181818182 12:0.780487805 13:0.04587156 14:0.122807018 15:0.5 
-1.7411011457443237 1:0.933333333 2:0.875 3:0.695 4:0.131147541 5:0.315789474 6:0.363636364 7:0.310344828 8:0.422535211 9:1.0 10:0.058823529 11:1.0 12:1.0 13:0.242201835 14:0.552631579 15:0.5 
1.7411011457443237 1:0.933333333 2:0.875 3:0.745 4:0.213114754 5:0.315789474 6:0.676767677 7:0.24137931 8:0.211267606 9:1.0 10:0.058823529 11:0.424242424 12:0.219512195 13:0.524770642 14:0.429824561 15:0.5 
-1.7411011457443237 1:0.666666667 2:0.625 3:0.36 4:0.68852459 5:0.526315789 6:0.858585859 7:0.103448276 8:0.549295775 9:0.125 10:0.411764706 11:0.03030303 12:0.585365854 13:0.091743119 14:0.184210526 15:0.5 
-1.7411011457443237 1:0.933333333 2:0.875 3:0.855 4:0.131147541 5:0.315789474 6:0.47979798 7:0.325123153 8:0.309859155 9:1.0 10:0.058823529 11:0.787878788 12:0.43902439 13:0.352293578 14:0.578947368 15:0.5 
-1.7411011457443237 1:1.0 2:1.0 3:1.0 4:0.967213115 5:0.210526316 6:0.98989899 7:0.522167488 8:0.014084507 9:1.0 10:1.0 11:1.0 12:1.0 13:0.783486239 14:1.0 15:0.75 
-1.7411011457443237 1:1.0 2:1.0 3:1.0 4:0.950819672 5:0.210526316 6:0.984848485 7:0.655172414 8:0.014084507 9:1.0 10:1.0 11:1.0 12:1.0 13:0.860550459 14:1.0 15:0.75 
-1.7411011457443237 1:1.0 2:1.0 3:1.0 4:0.852459016 5:0.210526316 6:0.974747475 7:0.684729064 8:0.014084507 9:1.0 10:1.0 11:1.0 12:1.0 13:0.87706422 14:1.0 15:0.75 
-1.7411011457443237 1:0.933333333 2:0.875 3:0.84 4:0.163934426 5:0.315789474 6:0.626262626 7:0.270935961 8:0.281690141 9:1.0 10:0.058823529 11:0.575757576 12:0.341463415 13:0.278899083 14:0.48245614 15:0.5 
-1.7411011457443237 1:0.933333333 2:0.875 3:0.475 4:0.131147541 5:0.210526316 6:0.267676768 7:0.334975369 8:0.422535211 9:1.0 10:0.058823529 11:1.0 12:1.0 13:0.526605505 14:0.98245614 15:0.5 
-1.7411011457443237 1:0.6 2:0.5625 3:0.225 4:0.836065574 5:0.578947368 6:0.752525253 7:0.064039409 8:0.704225352 9:0.125 10:0.470588235 11:0.242424242 12:0.707317073 13:0.067889908 14:0.114035088 15:0.5 
-1.7411011457443237 1:0.933333333 2:0.875 3:0.85 4:0.049180328 5:0.210526316 6:0.196969697 7:0.39408867 8:0.323943662 9:1.0 10:0.058823529 11:1.0 12:1.0 13:0.381651376 14:0.99122807 15:0.5 
-1.7411011457443237 1:1.0 2:1.0 3:1.0 4:0.93442623 5:0.210526316 6:0.97979798 7:0.63546798 8:0.014084507 9:1.0 10:1.0 11:1.0 12:1.0 13:0.871559633 14:1.0 15:0.75 
-1.7411011457443237 1:1.0 2:0.9375 3:0.97 4:0.131147541 5:0.263157895 6:0.585858586 7:0.403940887 8:0.014084507 9:0.125 10:1.0 11:1.0 12:0.024390244 13:0.563302752 14:0.719298246 15:0.5 
1.7411011457443237 1:0.933333333 2:0.8125 3:0.155 4:0.06557377 5:0.368421053 6:0.050505051 7:0.379310345 8:0.422535211 9:0.625 10:1.0 11:1.0 12:0.512195122 13:0.181651376 14:0.675438596 15:0.5 
1.7411011457443237 1:0.466666667 2:0.4375 3:0.275 4:0.557377049 5:0.684210526 6:0.656565657 7:0.448275862 8:0.85915493 9:1.0 10:1.0 11:1.0 12:1.0 13:0.034862385 14:0.780701754 15:0.75 
1.7411011457443237 1:0.933333333 2:0.875 3:0.85 4:0.049180328 5:0.210526316 6:0.196969697 7:0.374384236 8:0.323943662 9:1.0 10:0.058823529 11:1.0 12:1.0 13:0.212844037 14:0.99122807 15:0.5 
1.7411011457443237 1:0.466666667 2:0.4375 3:0.27 4:0.557377049 5:0.684210526 6:0.651515152 7:0.438423645 8:0.85915493 9:1.0 10:1.0 11:1.0 12:1.0 13:0.03853211 14:0.763157895 15:0.75 
1.7411011457443237 1:1.0 2:1.0 3:1.0 4:0.950819672 5:0.210526316 6:0.984848485 7:0.714285714 8:0.014084507 9:1.0 10:1.0 11:1.0 12:1.0 13:0.72293578 14:1.0 15:0.75 
1.7411011457443237 1:1.0 2:1.0 3:1.0 4:0.409836066 5:0.210526316 6:0.96969697 7:0.807881773 8:0.014084507 9:1.0 10:1.0 11:1.0 12:1.0 13:0.996330275 14:1.0 15:0.75 
1.7411011457443237 1:1.0 2:1.0 3:1.0 4:0.93442623 5:0.210526316 6:0.97979798 7:0.615763547 8:0.014084507 9:1.0 10:1.0 11:1.0 12:1.0 13:0.935779817 14:1.0 15:0.75 
1.7411011457443237 1:0.933333333 2:0.875 3:0.46 4:0.163934426 5:0.315789474 6:0.303030303 7:0.305418719 8:0.323943662 9:1.0 10:0.058823529 11:0.878787879 12:0.512195122 13:0.478899083 14:0.543859649 15:0.5 
-1.2711075624669657 1:0.333333333 2:0.3125 3:0.06 4:0.524590164 5:0.789473684 6:0.151515152 7:0.42364532 8:0.901408451 9:1.0 10:1.0 11:1.0 12:1.0 13:0.018348624 14:0.745614035 15:0.75 
1.7411011457443237 1:0.933333333 2:0.8125 3:0.2 4:0.06557377 5:0.368421053 6:0.070707071 7:0.354679803 8:0.422535211 9:0.5 10:1.0 11:1.0 12:0.43902439 13:0.157798165 14:0.631578947 15:0.5 
1.7411011457443237 1:1.0 2:1.0 3:1.0 4:0.409836066 5:0.210526316 6:0.96969697 7:0.807881773 8:0.014084507 9:1.0 10:1.0 11:1.0 12:1.0 13:0.996330275 14:1.0 15:0.75 
1.7411011457443237 1:0.933333333 2:0.875 3:0.51 4:0.213114754 5:0.315789474 6:0.444444444 7:0.206896552 8:0.154929577 9:1.0 10:0.058823529 11:0.848484848 12:0.487804878 13:0.229357798 14:0.368421053 15:0.5 
1.7411011457443237 1:0.866666667 2:0.8125 3:0.6 4:0.327868852 5:0.368421053 6:0.797979798 7:0.216748768 8:0.338028169 9:0.125 10:0.176470588 11:0.424242424 12:0.487804878 13:0.137614679 14:0.385964912 15:0.5 
1.7411011457443237 1:1.0 2:1.0 3:1.0 4:0.852459016 5:0.210526316 6:0.974747475 7:0.763546798 8:0.014084507 9:1.0 10:1.0 11:1.0 12:1.0 13:0.686238532 14:1.0 15:0.75 
1.7411011457443237 1:0.933333333 2:0.875 3:0.53 4:0.262295082 5:0.315789474 6:0.626262626 7:0.261083744 8:0.112676056 9:1.0 10:0.058823529 11:0.787878788 12:0.43902439 13:0.247706422 14:0.464912281 15:0.5 
1.7411011457443237 1:0.266666667 2:0.25 3:0.02 4:0.540983607 5:0.842105263 6:0.055555556 7:0.014778325 8:0.957746479 9:0.25 10:0.764705882 11:0.636363636 12:0.829268293 13:0.009174312 14:0.026315789 15:0.5 
-1.7411011457443237 1:1.0 2:1.0 3:1.0 4:0.409836066 5:0.210526316 6:0.96969697 7:0.945812808 8:0.014084507 9:1.0 10:1.0 11:1.0 12:1.0 13:0.917431193 14:1.0 15:0.75 
-1.7411011457443237 1:1.0 2:1.0 3:1.0 4:0.409836066 5:0.210526316 6:0.96969697 7:0.945812808 8:0.014084507 9:1.0 10:1.0 11:1.0 12:1.0 13:0.917431193 14:1.0 15:0.75 
-1.7411011457443237 1:0.933333333 2:0.875 3:0.855 4:0.131147541 5:0.315789474 6:0.47979798 7:0.305418719 8:0.309859155 9:1.0 10:0.058823529 11:0.787878788 12:0.43902439 13:0.275229358 14:0.543859649 15:0.5 
-1.7411011457443237 1:0.6 2:0.5625 3:0.225 4:0.836065574 5:0.578947368 6:0.752525253 7:0.078817734 8:0.704225352 9:0.125 10:0.470588235 11:0.242424242 12:0.707317073 13:0.066055046 14:0.140350877 15:0.5 
-1.7411011457443237 1:0.933333333 2:0.875 3:0.84 4:0.163934426 5:0.315789474 6:0.626262626 7:0.270935961 8:0.281690141 9:1.0 10:0.058823529 11:0.575757576 12:0.341463415 13:0.278899083 14:0.48245614 15:0.5 
-1.7411011457443237 1:0.866666667 2:0.8125 3:0.445 4:0.508196721 5:0.368421053 6:0.833333333 7:0.18226601 8:0.14084507 9:1.0 10:0.352941176 11:0.939393939 12:0.609756098 13:0.194495413 14:0.324561404 15:0.5 
-1.7411011457443237 1:1.0 2:1.0 3:1.0 4:0.409836066 5:0.210526316 6:0.96969697 7:0.945812808 8:0.014084507 9:1.0 10:1.0 11:1.0 12:1.0 13:0.911926606 14:1.0 15:0.75 
-1.7411011457443237 1:1.0 2:1.0 3:1.0 4:0.93442623 5:0.210526316 6:0.97979798 7:0.640394089 8:0.014084507 9:1.0 10:1.0 11:1.0 12:1.0 13:0.873394495 14:1.0 15:0.75 
-1.7411011457443237 1:0.466666667 2:0.4375 3:0.285 4:0.868852459 5:0.684210526 6:0.853535354 7:0.133004926 8:0.633802817 9:0.125 10:0.588235294 11:0.181818182 12:0.780487805 13:0.042201835 14:0.236842105 15:0.5 
-1.7411011457443237 1:0.933333333 2:0.875 3:0.59 4:0.196721311 5:0.315789474 6:0.515151515 7:0.270935961 8:0.323943662 9:1.0 10:0.058823529 11:0.909090909 12:0.536585366 13:0.260550459 14:0.48245614 15:0.5 
-1.7411011457443237 1:0.933333333 2:0.875 3:0.85 4:0.049180328 5:0.210526316 6:0.196969697 7:0.39408867 8:0.323943662 9:1.0 10:0.058823529 11:1.0 12:1.0 13:0.464220183 14:0.99122807 15:0.5 
-1.7411011457443237 1:0.933333333 2:0.8125 3:0.3 4:0.081967213 5:0.368421053 6:0.111111111 7:0.374384236 8:0.450704225 9:1.0 10:0.058823529 11:0.909090909 12:0.536585366 13:0.174311927 14:0.666666667 15:0.5 
-1.7411011457443237 1:0.6 2:0.5625 3:0.305 4:0.737704918 5:0.578947368 6:0.828282828 7:0.02955665 8:0.746478873 9:0.25 10:0.470588235 11:0.575757576 12:0.56097561 13:0.056880734 14:0.052631579 15:0.5 
-1.7411011457443237 1:0.933333333 2:0.875 3:0.645 4:0.131147541 5:0.315789474 6:0.343434343 7:0.379310345 8:0.422535211 9:1.0 10:0.058823529 11:1.0 12:1.0 13:0.458715596 14:0.675438596 15:0.5 
-1.7411011457443237 1:1.0 2:1.0 3:1.0 4:0.983606557 5:0.210526316 6:0.994949495 7:0.502463054 8:0.014084507 9:1.0 10:1.0 11:1.0 12:1.0 13:0.750458716 14:1.0 15:0.75 
-1.7411011457443237 1:1.0 2:1.0 3:1.0 4:0.967213115 5:0.210526316 6:0.98989899 7:0.551724138 8:0.014084507 9:1.0 10:1.0 11:1.0 12:1.0 13:0.697247706 14:1.0 15:0.75 
-1.7411011457443237 1:0.933333333 2:0.875 3:0.425 4:0.295081967 5:0.315789474 6:0.570707071 7:0.162561576 8:0.056338028 9:1.0 10:0.058823529 11:0.575757576 12:0.341463415 13:0.291743119 14:0.289473684 15:0.5 
-1.7411011457443237 1:0.933333333 2:0.875 3:0.42 4:0.295081967 5:0.315789474 6:0.550505051 7:0.18226601 8:0.056338028 9:1.0 10:0.058823529 11:0.575757576 12:0.341463415 13:0.240366972 14:0.324561404 15:0.5 
-1.7411011457443237 1:0.466666667 2:0.4375 3:0.28 4:0.868852459 5:0.684210526 6:0.843434343 7:0.128078818 8:0.633802817 9:0.125 10:0.588235294 11:0.181818182 12:0.780487805 13:0.049541284 14:0.228070175 15:0.5 
-1.7411011457443237 1:0.666666667 2:0.625 3:0.365 4:0.68852459 5:0.526315789 6:0.863636364 7:0.118226601 8:0.563380282 9:0.125 10:0.411764706 11:0.03030303 12:0.585365854 13:0.08440367 14:0.210526316 15:0.5 
1.7411011457443237 1:1.0 2:1.0 3:1.0 4:0.852459016 5:0.210526316 6:0.974747475 7:0.743842365 8:0.014084507 9:1.0 10:1.0 11:1.0 12:1.0 13:0.777981651 14:1.0 15:0.75 
1.7411011457443237 1:0.933333333 2:0.8125 3:0.295 4:0.114754098 5:0.368421053 6:0.176767677 7:0.256157635 8:0.295774648 9:1.0 10:0.058823529 11:0.757575758 12:0.414634146 13:0.143119266 14:0.456140351 15:0.5 
1.7411011457443237 1:1.0 2:1.0 3:1.0 4:0.409836066 5:0.210526316 6:0.96969697 7:0.81773399 8:0.014084507 9:1.0 10:1.0 11:1.0 12:1.0 13:0.867889908 14:1.0 15:0.75 
1.7411011457443237 1:0.733333333 2:0.6875 3:0.29 4:0.442622951 5:0.473684211 6:0.601010101 7:0.162561576 8:0.605633803 9:0.125 10:0.294117647 11:0.303030303 12:0.56097561 13:0.095412844 14:0.289473684 15:0.5 
1.7411011457443237 1:1.0 2:1.0 3:1.0 4:0.409836066 5:0.210526316 6:0.96969697 7:0.926108374 8:0.014084507 9:1.0 10:1.0 11:1.0 12:1.0 13:0.840366972 14:1.0 15:0.75 
1.7411011457443237 1:0.933333333 2:0.8125 3:0.195 4:0.06557377 5:0.368421053 6:0.065656566 7:0.354679803 8:0.422535211 9:0.5 10:1.0 11:1.0 12:0.43902439 13:0.15412844 14:0.631578947 15:0.5 
-1.7411011457443237 1:0.333333333 2:0.3125 3:0.06 4:0.524590164 5:0.789473684 6:0.151515152 7:0.428571429 8:0.901408451 9:1.0 10:1.0 11:1.0 12:1.0 13:0.016513761 14:0.754385965 15:0.75 
1.7411011457443237 1:1.0 2:1.0 3:1.0 4:0.016393443 5:0.105263158 6:0.090909091 7:0.960591133 8:0.014084507 9:1.0 10:1.0 11:1.0 12:1.0 13:0.864220183 14:1.0 15:0.75 
1.7411011457443237 1:1.0 2:1.0 3:1.0 4:0.016393443 5:0.105263158 6:0.090909091 7:0.960591133 8:0.014084507 9:1.0 10:1.0 11:1.0 12:1.0 13:0.849541284 14:1.0 15:0.75 
1.7411011457443237 1:0.933333333 2:0.875 3:0.515 4:0.213114754 5:0.315789474 6:0.454545455 7:0.221674877 8:0.154929577 9:1.0 10:0.058823529 11:0.848484848 12:0.487804878 13:0.256880734 14:0.394736842 15:0.5 
1.7411011457443237 1:0.933333333 2:0.8125 3:0.355 4:0.081967213 5:0.368421053 6:0.131313131 7:0.379310345 8:0.323943662 9:1.0 10:0.058823529 11:0.727272727 12:0.390243902 13:0.176146789 14:0.675438596 15:0.5 
1.7411011457443237 1:0.933333333 2:0.875 3:0.85 4:0.049180328 5:0.210526316 6:0.196969697 7:0.389162562 8:0.323943662 9:1.0 10:0.058823529 11:1.0 12:1.0 13:0.427522936 14:0.99122807 15:0.5 
1.7411011457443237 1:1.0 2:1.0 3:1.0 4:0.852459016 5:0.210526316 6:0.974747475 7:0.733990148 8:0.014084507 9:1.0 10:1.0 11:1.0 12:1.0 13:0.695412844 14:1.0 15:0.75 
1.7411011457443237 1:0.866666667 2:0.8125 3:0.86 4:0.295081967 5:0.368421053 6:0.873737374 7:0.305418719 8:0.197183099 9:1.0 10:0.176470588 11:0.878787879 12:0.512195122 13:0.150458716 14:0.543859649 15:0.5 
1.7411011457443237 1:0.933333333 2:0.875 3:0.85 4:0.049180328 5:0.210526316 6:0.196969697 7:0.374384236 8:0.323943662 9:1.0 10:0.058823529 11:1.0 12:1.0 13:0.214678899 14:0.99122807 15:0.5 
1.7411011457443237 1:0.933333333 2:0.875 3:0.535 4:0.295081967 5:0.315789474 6:0.671717172 7:0.231527094 8:0.056338028 9:1.0 10:0.058823529 11:0.575757576 12:0.341463415 13:0.24587156 14:0.412280702 15:0.5 
-1.7411011457443237 1:0.933333333 2:0.875 3:0.635 4:0.213114754 5:0.315789474 6:0.616161616 7:0.261083744 8:0.070422535 9:1.0 10:0.058823529 11:0.575757576 12:0.341463415 13:0.339449541 14:0.464912281 15:0.5 
-1.7411011457443237 1:0.933333333 2:0.8125 3:0.38 4:0.081967213 5:0.368421053 6:0.146464646 7:0.349753695 8:0.281690141 9:0.5 10:1.0 11:1.0 12:0.43902439 13:0.185321101 14:0.622807018 15:0.5 
-1.7411011457443237 1:0.933333333 2:0.875 3:0.85 4:0.049180328 5:0.210526316 6:0.196969697 7:0.39408867 8:0.323943662 9:1.0 10:0.058823529 11:1.0 12:1.0 13:0.390825688 14:0.99122807 15:0.5 
-1.7411011457443237 1:0.933333333 2:0.875 3:0.63 4:0.31147541 5:0.315789474 6:0.792929293 7:0.21182266 8:0.14084507 9:1.0 10:0.058823529 11:0.454545455 12:0.243902439 13:0.372477064 14:0.377192982 15:0.5 
-1.7411011457443237 1:0.933333333 2:0.875 3:0.635 4:0.213114754 5:0.315789474 6:0.616161616 7:0.261083744 8:0.070422535 9:1.0 10:0.058823529 11:0.575757576 12:0.341463415 13:0.357798165 14:0.464912281 15:0.5 
-1.7411011457443237 1:1.0 2:0.9375 3:1.0 4:0.983606557 5:0.263157895 6:0.994949495 7:0.502463054 8:0.014084507 9:1.0 10:1.0 11:1.0 12:1.0 13:0.669724771 14:0.824561404 15:0.75 
-1.7411011457443237 1:0.6 2:0.5625 3:0.325 4:0.803278689 5:0.578947368 6:0.888888889 7:0.039408867 8:0.718309859 9:0.125 10:0.470588235 11:0.03030303 12:0.658536585 13:0.069724771 14:0.070175439 15:0.5 
-1.7411011457443237 1:0.933333333 2:0.875 3:0.825 4:0.131147541 5:0.315789474 6:0.439393939 7:0.339901478 8:0.309859155 9:1.0 10:0.058823529 11:0.787878788 12:0.43902439 13:0.330275229 14:0.605263158 15:0.5 
-1.7411011457443237 1:1.0 2:1.0 3:1.0 4:0.016393443 5:0.105263158 6:0.090909091 7:0.965517241 8:0.014084507 9:1.0 10:1.0 11:1.0 12:1.0 13:0.869724771 14:1.0 15:0.75 
0.7024365954231355 1:0.933333333 2:0.875 3:0.945 4:0.295081967 5:0.315789474 6:0.904040404 7:0.142857143 8:0.126760563 9:0.125 10:0.117647059 11:0.575757576 12:0.341463415 13:0.376146789 14:0.254385965 15:0.5 
-1.7411011457443237 1:1.0 2:1.0 3:1.0 4:0.131147541 5:0.052631579 6:0.606060606 7:0.9408867 8:0.014084507 9:1.0 10:1.0 11:1.0 12:1.0 13:0.966972477 14:1.0 15:0.75 
-1.7411011457443237 1:0.933333333 2:0.875 3:0.62 4:0.131147541 5:0.315789474 6:0.333333333 7:0.374384236 8:0.422535211 9:1.0 10:0.058823529 11:1.0 12:1.0 13:0.508256881 14:0.666666667 15:0.5 
-1.7411011457443237 1:1.0 2:1.0 3:1.0 4:0.852459016 5:0.210526316 6:0.974747475 7:0.778325123 8:0.014084507 9:1.0 10:1.0 11:1.0 12:1.0 13:0.844036697 14:1.0 15:0.75 
-1.7411011457443237 1:0.933333333 2:0.875 3:0.84 4:0.163934426 5:0.315789474 6:0.626262626 7:0.280788177 8:0.281690141 9:1.0 10:0.058823529 11:0.575757576 12:0.341463415 13:0.295412844 14:0.5 15:0.5 
-1.7411011457443237 1:0.933333333 2:0.875 3:0.84 4:0.163934426 5:0.315789474 6:0.626262626 7:0.270935961 8:0.281690141 9:1.0 10:0.058823529 11:0.575757576 12:0.341463415 13:0.278899083 14:0.48245614 15:0.5 
-1.7411011457443237 1:0.933333333 2:0.875 3:0.485 4:0.196721311 5:0.315789474 6:0.393939394 7:0.334975369 8:0.098591549 9:1.0 10:0.058823529 11:0.727272727 12:0.390243902 13:0.462385321 14:0.596491228 15:0.5 
-1.7411011457443237 1:1.0 2:1.0 3:1.0 4:0.852459016 5:0.210526316 6:0.974747475 7:0.724137931 8:0.014084507 9:1.0 10:1.0 11:1.0 12:1.0 13:0.889908257 14:1.0 15:0.75 
-1.7411011457443237 1:0.933333333 2:0.875 3:0.855 4:0.131147541 5:0.315789474 6:0.47979798 7:0.325123153 8:0.309859155 9:1.0 10:0.058823529 11:0.787878788 12:0.43902439 13:0.352293578 14:0.578947368 15:0.5 
1.7411011457443237 1:0.933333333 2:0.875 3:0.56 4:0.213114754 5:0.315789474 6:0.535353535 7:0.266009852 8:0.154929577 9:1.0 10:0.058823529 11:0.848484848 12:0.487804878 13:0.220183486 14:0.473684211 15:0.5 
1.7411011457443237 1:0.4 2:0.375 3:0.08 4:0.721311475 5:0.736842105 6:0.262626263 7:0.098522167 8:0.845070423 9:0.125 10:0.647058824 11:0.03030303 12:0.804878049 13:0.027522936 14:0.175438596 15:0.5 
1.7411011457443237 1:1.0 2:1.0 3:1.0 4:0.93442623 5:0.210526316 6:0.97979798 7:0.615763547 8:0.014084507 9:1.0 10:1.0 11:1.0 12:1.0 13:0.935779817 14:1.0 15:0.75 
1.7411011457443237 1:0.933333333 2:0.8125 3:0.335 4:0.114754098 5:0.368421053 6:0.191919192 7:0.256157635 8:0.267605634 9:1.0 10:0.058823529 11:0.515151515 12:0.292682927 13:0.146788991 14:0.456140351 15:0.5 
1.7411011457443237 1:0.866666667 2:0.8125 3:0.435 4:0.245901639 5:0.368421053 6:0.434343434 7:0.261083744 8:0.38028169 9:0.125 10:0.176470588 11:0.03030303 12:0.43902439 13:0.179816514 14:0.464912281 15:0.5 
1.7411011457443237 1:1.0 2:1.0 3:1.0 4:0.852459016 5:0.210526316 6:0.974747475 7:0.729064039 8:0.014084507 9:1.0 10:1.0 11:1.0 12:1.0 13:0.68440367 14:1.0 15:0.75 
1.7411011457443237 1:0.933333333 2:0.875 3:0.41 4:0.163934426 5:0.315789474 6:0.277777778 7:0.36453202 8:0.323943662 9:0.125 10:0.117647059 11:0.575757576 12:0.341463415 13:0.341284404 14:0.649122807 15:0.5 
-1.7411011457443237 1:1.0 2:0.9375 3:0.145 4:0.032786885 5:0.263157895 6:0.03030303 7:1.0 8:0.014084507 9:1.0 10:1.0 11:1.0 12:1.0 13:0.548623853 14:0.973684211 15:1.0 
1.7411011457443237 1:1.0 2:1.0 3:1.0 4:0.016393443 5:0.105263158 6:0.090909091 7:0.965517241 8:0.014084507 9:1.0 10:1.0 11:1.0 12:1.0 13:0.834862385 14:1.0 15:0.75 
1.7411011457443237 1:0.933333333 2:0.875 3:0.575 4:0.196721311 5:0.315789474 6:0.48989899 7:0.251231527 8:0.23943662 9:1.0 10:0.058823529 11:0.787878788 12:0.43902439 13:0.311926606 14:0.447368421 15:0.5 
1.7411011457443237 1:1.0 2:1.0 3:1.0 4:0.93442623 5:0.210526316 6:0.97979798 7:0.640394089 8:0.014084507 9:1.0 10:1.0 11:1.0 12:1.0 13:0.744954128 14:1.0 15:0.75 
1.7411011457443237 1:0.933333333 2:0.875 3:0.85 4:0.131147541 5:0.315789474 6:0.474747475 7:0.300492611 8:0.197183099 9:1.0 10:0.058823529 11:0.787878788 12:0.43902439 13:0.266055046 14:0.535087719 15:0.5 
1.7411011457443237 1:0.933333333 2:0.875 3:0.505 4:0.196721311 5:0.315789474 6:0.409090909 7:0.270935961 8:0.323943662 9:1.0 10:0.058823529 11:0.909090909 12:0.536585366 13:0.205504587 14:0.50877193 15:0.5 
1.7411011457443237 1:0.866666667 2:0.8125 3:0.65 4:0.459016393 5:0.368421053 6:0.919191919 7:0.216748768 8:0.253521127 9:0.125 10:0.176470588 11:0.424242424 12:0.487804878 13:0.135779817 14:0.385964912 15:0.5 
1.7411011457443237 1:0.866666667 2:0.8125 3:0.655 4:0.459016393 5:0.368421053 6:0.929292929 7:0.216748768 8:0.253521127 9:0.125 10:0.176470588 11:0.424242424 12:0.487804878 13:0.133944954 14:0.385964912 15:0.5 
1.7411011457443237 1:0.933333333 2:0.875 3:0.455 4:0.213114754 5:0.315789474 6:0.398989899 7:0.251231527 8:0.267605634 9:1.0 10:0.058823529 11:0.696969697 12:0.365853659 13:0.488073394 14:0.447368421 15:0.5 
1.7411011457443237 1:0.666666667 2:0.625 3:0.185 4:0.672131148 5:0.526315789 6:0.555555556 7:0.162561576 8:0.492957746 9:0.125 10:0.411764706 11:0.03030303 12:0.585365854 13:0.075229358 14:0.289473684 15:0.5 
1.7411011457443237 1:1.0 2:1.0 3:1.0 4:0.409836066 5:0.210526316 6:0.96969697 7:0.793103448 8:0.014084507 9:1.0 10:1.0 11:1.0 12:1.0 13:0.965137615 14:1.0 15:0.75 
1.7411011457443237 1:0.866666667 2:0.8125 3:0.685 4:0.147540984 5:0.368421053 6:0.419191919 7:0.477832512 8:0.464788732 9:1.0 10:1.0 11:1.0 12:1.0 13:0.148623853 14:0.798245614 15:0.75 
-1.7411011457443237 1:1.0 2:1.0 3:1.0 4:0.852459016 5:0.210526316 6:0.974747475 7:0.802955665 8:0.014084507 9:1.0 10:1.0 11:1.0 12:1.0 13:0.952293578 14:1.0 15:0.75 
-1.7411011457443237 1:0.933333333 2:0.875 3:0.7 4:0.131147541 5:0.315789474 6:0.368686869 7:0.359605911 8:0.309859155 9:0.125 10:0.058823529 11:0.575757576 12:0.048780488 13:0.233027523 14:0.640350877 15:0.5 
1.7411011457443237 1:1.0 2:1.0 3:1.0 4:0.409836066 5:0.210526316 6:0.96969697 7:0.719211823 8:0.014084507 9:1.0 10:1.0 11:1.0 12:1.0 13:0.932110092 14:1.0 15:0.75 
-1.7411011457443237 1:1.0 2:0.9375 3:0.97 4:0.131147541 5:0.263157895 6:0.585858586 7:0.403940887 8:0.014084507 9:0.125 10:1.0 11:1.0 12:0.024390244 13:0.565137615 14:0.719298246 15:0.5 
-1.7411011457443237 1:1.0 2:1.0 3:1.0 4:0.852459016 5:0.210526316 6:0.974747475 7:0.60591133 8:0.014084507 9:1.0 10:1.0 11:1.0 12:1.0 13:0.726605505 14:1.0 15:0.75 
-1.7411011457443237 1:1.0 2:1.0 3:1.0 4:0.016393443 5:0.105263158 6:0.090909091 7:0.97044335 8:0.014084507 9:1.0 10:1.0 11:1.0 12:1.0 13:0.809174312 14:1.0 15:0.75 
-1.7411011457443237 1:0.466666667 2:0.4375 3:0.205 4:0.901639344 5:0.684210526 6:0.742424242 7:0.073891626 8:0.76056338 9:0.125 10:0.588235294 11:0.181818182 12:0.780487805 13:0.040366972 14:0.131578947 15:0.5 
-1.7411011457443237 1:0.933333333 2:0.875 3:0.85 4:0.049180328 5:0.210526316 6:0.196969697 7:0.399014778 8:0.323943662 9:1.0 10:0.058823529 11:1.0 12:1.0 13:0.365137615 14:0.99122807 15:0.5 
-1.7411011457443237 1:0.933333333 2:0.875 3:0.475 4:0.131147541 5:0.210526316 6:0.267676768 7:0.334975369 8:0.422535211 9:1.0 10:0.058823529 11:1.0 12:1.0 13:0.517431193 14:0.98245614 15:0.5 
-1.7411011457443237 1:1.0 2:1.0 3:1.0 4:0.983606557 5:0.210526316 6:0.994949495 7:0.502463054 8:0.014084507 9:1.0 10:1.0 11:1.0 12:1.0 13:0.750458716 14:1.0 15:0.75 
1.7411011457443237 1:0.933333333 2:0.875 3:0.795 4:0.213114754 5:0.315789474 6:0.727272727 7:0.256157635 8:0.211267606 9:1.0 10:0.058823529 11:0.424242424 12:0.219512195 13:0.489908257 14:0.456140351 15:0.5 
-1.7411011457443237 1:1.0 2:1.0 3:1.0 4:0.016393443 5:0.105263158 6:0.090909091 7:0.965517241 8:0.014084507 9:1.0 10:1.0 11:1.0 12:1.0 13:0.829357798 14:1.0 15:0.75 
1.7411011457443237 1:0.933333333 2:0.875 3:0.82 4:0.196721311 5:0.315789474 6:0.696969697 7:0.275862069 8:0.23943662 9:1.0 10:0.058823529 11:0.484848485 12:0.268292683 13:0.467889908 14:0.49122807 15:0.5 
-1.7411011457443237 1:1.0 2:1.0 3:1.0 4:0.016393443 5:0.105263158 6:0.090909091 7:0.965517241 8:0.014084507 9:1.0 10:1.0 11:1.0 12:1.0 13:0.827522936 14:1.0 15:0.75 
-1.7411011457443237 1:0.933333333 2:0.875 3:0.75 4:0.196721311 5:0.315789474 6:0.641414141 7:0.266009852 8:0.070422535 9:1.0 10:0.058823529 11:0.484848485 12:0.268292683 13:0.420183486 14:0.473684211 15:0.5 
-1.7411011457443237 1:1.0 2:1.0 3:1.0 4:0.016393443 5:0.157894737 6:0.090909091 7:0.950738916 8:0.014084507 9:1.0 10:1.0 11:1.0 12:1.0 13:0.895412844 14:1.0 15:0.75 
1.7411011457443237 1:0.933333333 2:0.875 3:0.85 4:0.049180328 5:0.210526316 6:0.196969697 7:0.39408867 8:0.323943662 9:1.0 10:0.058823529 11:1.0 12:1.0 13:0.350458716 14:0.99122807 15:0.5 
1.7411011457443237 1:0.933333333 2:0.875 3:0.85 4:0.049180328 5:0.210526316 6:0.196969697 7:0.39408867 8:0.323943662 9:1.0 10:0.058823529 11:1.0 12:1.0 13:0.414678899 14:0.99122807 15:0.5 
1.7411011457443237 1:1.0 2:1.0 3:1.0 4:0.93442623 5:0.210526316 6:0.97979798 7:0.719211823 8:0.014084507 9:1.0 10:1.0 11:1.0 12:1.0 13:0.721100917 14:1.0 15:0.75 
1.7411011457443237 1:1.0 2:1.0 3:1.0 4:0.93442623 5:0.210526316 6:0.97979798 7:0.674876847 8:0.014084507 9:1.0 10:1.0 11:1.0 12:1.0 13:0.710091743 14:1.0 15:0.75 
1.7411011457443237 1:0.933333333 2:0.875 3:0.585 4:0.196721311 5:0.315789474 6:0.5 7:0.251231527 8:0.23943662 9:1.0 10:0.058823529 11:0.787878788 12:0.43902439 13:0.299082569 14:0.447368421 15:0.5 
1.7411011457443237 1:1.0 2:1.0 3:1.0 4:0.409836066 5:0.210526316 6:0.96969697 7:0.827586207 8:0.014084507 9:1.0 10:1.0 11:1.0 12:1.0 13:0.728440367 14:1.0 15:0.75 
1.7411011457443237 1:1.0 2:1.0 3:1.0 4:0.409836066 5:0.210526316 6:0.96969697 7:0.891625616 8:0.014084507 9:1.0 10:1.0 11:1.0 12:1.0 13:0.888073394 14:1.0 15:0.75 
1.7411011457443237 1:1.0 2:1.0 3:1.0 4:0.852459016 5:0.210526316 6:0.974747475 7:0.753694581 8:0.014084507 9:1.0 10:1.0 11:1.0 12:1.0 13:0.699082569 14:1.0 15:0.75 
1.7411011457443237 1:1.0 2:0.9375 3:0.97 4:0.131147541 5:0.263157895 6:0.585858586 7:0.403940887 8:0.014084507 9:0.125 10:1.0 11:1.0 12:0.024390244 13:0.577981651 14:0.719298246 15:0.5 
1.7411011457443237 1:0.133333333 2:0.125 3:0.07 4:0.918032787 5:0.947368421 6:0.272727273 7:0.049261084 8:0.929577465 9:0.125 10:0.882352941 11:0.060606061 12:0.951219512 13:0.00733945 14:0.087719298 15:0.5 
1.7411011457443237 1:1.0 2:1.0 3:1.0 4:0.016393443 5:0.105263158 6:0.090909091 7:0.965517241 8:0.014084507 9:1.0 10:1.0 11:1.0 12:1.0 13:0.833027523 14:1.0 15:0.75 
1.7411011457443237 1:0.933333333 2:0.875 3:0.705 4:0.163934426 5:0.315789474 6:0.51010101 7:0.369458128 8:0.281690141 9:0.125 10:0.117647059 11:0.575757576 12:0.341463415 13:0.282568807 14:0.657894737 15:0.5 
1.7411011457443237 1:0.933333333 2:0.875 3:0.565 4:0.196721311 5:0.315789474 6:0.46969697 7:0.275862069 8:0.323943662 9:1.0 10:0.058823529 11:0.909090909 12:0.536585366 13:0.253211009 14:0.49122807 15:0.5 
1.7411011457443237 1:0.933333333 2:0.875 3:0.525 4:0.262295082 5:0.315789474 6:0.626262626 7:0.251231527 8:0.112676056 9:1.0 10:0.058823529 11:0.787878788 12:0.43902439 13:0.222018349 14:0.447368421 15:0.5 
1.7411011457443237 1:1.0 2:1.0 3:1.0 4:0.131147541 5:0.210526316 6:0.606060606 7:0.748768473 8:0.014084507 9:1.0 10:1.0 11:1.0 12:1.0 13:0.743119266 14:1.0 15:0.75 
1.7411011457443237 1:0.933333333 2:0.8125 3:0.295 4:0.114754098 5:0.368421053 6:0.176767677 7:0.24137931 8:0.295774648 9:1.0 10:0.058823529 11:0.757575758 12:0.414634146 13:0.132110092 14:0.429824561 15:0.5 
1.7411011457443237 1:0.933333333 2:0.875 3:0.56 4:0.213114754 5:0.315789474 6:0.535353535 7:0.275862069 8:0.154929577 9:1.0 10:0.058823529 11:0.848484848 12:0.487804878 13:0.23853211 14:0.49122807 15:0.5 
1.7411011457443237 1:0.133333333 2:0.125 3:0.05 4:0.885245902 5:0.947368421 6:0.212121212 7:0.034482759 8:0.929577465 9:0.25 10:0.882352941 11:0.606060606 12:0.87804878 13:0.003669725 14:0.061403509 15:0.5 
1.7411011457443237 1:0.933333333 2:0.875 3:0.58 4:0.213114754 5:0.315789474 6:0.545454545 7:0.280788177 8:0.154929577 9:1.0 10:0.058823529 11:0.848484848 12:0.487804878 13:0.249541284 14:0.5 15:0.5 
-1.7411011457443237 1:1.0 2:1.0 3:1.0 4:0.131147541 5:0.210526316 6:0.606060606 7:0.871921182 8:0.014084507 9:1.0 10:1.0 11:1.0 12:1.0 13:0.757798165 14:1.0 15:0.75 
-1.7411011457443237 1:0.8 2:0.75 3:0.625 4:0.606557377 5:0.421052632 6:0.954545455 7:0.172413793 8:0.394366197 9:0.125 10:0.235294118 11:0.03030303 12:0.512195122 13:0.104587156 14:0.307017544 15:0.5 
-1.7411011457443237 1:0.933333333 2:0.875 3:0.395 4:0.278688525 5:0.315789474 6:0.45959596 7:0.221674877 8:0.084507042 9:1.0 10:0.058823529 11:0.818181818 12:0.463414634 13:0.273394495 14:0.394736842 15:0.5 
-1.7411011457443237 1:1.0 2:1.0 3:1.0 4:0.131147541 5:0.210526316 6:0.606060606 7:0.81773399 8:0.014084507 9:1.0 10:1.0 11:1.0 12:1.0 13:0.851376147 14:1.0 15:0.75 
1.7411011457443237 1:0.933333333 2:0.875 3:0.76 4:0.295081967 5:0.315789474 6:0.823232323 7:0.21182266 8:0.126760563 9:1.0 10:0.058823529 11:0.333333333 12:0.146341463 13:0.469724771 14:0.377192982 15:0.5 
-1.7411011457443237 1:0.066666667 2:0.0625 3:0.005 4:0.590163934 5:1.0 6:0.01010101 7:0.004926108 8:1.0 9:0.875 10:0.941176471 11:0.96969697 12:0.975609756 13:0.001834862 14:0.00877193 15:0.25 
-1.7411011457443237 1:1.0 2:1.0 3:1.0 4:0.131147541 5:0.210526316 6:0.606060606 7:0.768472906 8:0.014084507 9:1.0 10:1.0 11:1.0 12:1.0 13:0.706422018 14:1.0 15:0.75 
-1.7411011457443237 1:0.6 2:0.5625 3:0.32 4:0.786885246 5:0.578947368 6:0.868686869 7:0.0591133 8:0.732394366 9:0.125 10:0.470588235 11:0.03030303 12:0.658536585 13:0.062385321 14:0.105263158 15:0.5 
1.7411011457443237 1:1.0 2:1.0 3:1.0 4:0.409836066 5:0.210526316 6:0.96969697 7:0.699507389 8:0.014084507 9:1.0 10:1.0 11:1.0 12:1.0 13:0.968807339 14:1.0 15:0.75 
-1.7411011457443237 1:1.0 2:1.0 3:1.0 4:0.016393443 5:0.157894737 6:0.090909091 7:0.950738916 8:0.014084507 9:1.0 10:1.0 11:1.0 12:1.0 13:0.900917431 14:1.0 15:0.75 
-1.7411011457443237 1:0.933333333 2:0.8125 3:0.25 4:0.081967213 5:0.368421053 6:0.101010101 7:0.349753695 8:0.323943662 9:0.5 10:1.0 11:1.0 12:0.43902439 13:0.198165138 14:0.622807018 15:0.5 
1.7411011457443237 1:0.933333333 2:0.875 3:0.79 4:0.262295082 5:0.315789474 6:0.808080808 7:0.24137931 8:0.028169014 9:1.0 10:0.058823529 11:0.272727273 12:0.097560976 13:0.506422018 14:0.429824561 15:0.5 
-1.7411011457443237 1:1.0 2:1.0 3:1.0 4:0.016393443 5:0.105263158 6:0.090909091 7:0.97044335 8:0.014084507 9:1.0 10:1.0 11:1.0 12:1.0 13:0.80733945 14:1.0 15:0.75 
1.7411011457443237 1:1.0 2:1.0 3:1.0 4:0.93442623 5:0.210526316 6:0.97979798 7:0.674876847 8:0.014084507 9:1.0 10:1.0 11:1.0 12:1.0 13:0.710091743 14:1.0 15:0.75 
1.7411011457443237 1:1.0 2:1.0 3:1.0 4:0.983606557 5:0.210526316 6:0.994949495 7:0.600985222 8:0.014084507 9:1.0 10:1.0 11:1.0 12:1.0 13:0.700917431 14:1.0 15:0.75 
1.7411011457443237 1:0.733333333 2:0.6875 3:0.24 4:0.360655738 5:0.473684211 6:0.353535354 7:0.177339901 8:0.591549296 9:0.125 10:0.294117647 11:0.303030303 12:0.56097561 13:0.097247706 14:0.315789474 15:0.5 
1.7411011457443237 1:0.933333333 2:0.875 3:0.5 4:0.213114754 5:0.315789474 6:0.429292929 7:0.18226601 8:0.154929577 9:1.0 10:0.058823529 11:0.848484848 12:0.487804878 13:0.267889908 14:0.324561404 15:0.5 
1.7411011457443237 1:1.0 2:1.0 3:1.0 4:0.983606557 5:0.210526316 6:0.994949495 7:0.556650246 8:0.014084507 9:1.0 10:1.0 11:1.0 12:1.0 13:0.733944954 14:1.0 15:0.75 
1.7411011457443237 1:1.0 2:1.0 3:1.0 4:0.409836066 5:0.210526316 6:0.96969697 7:0.832512315 8:0.014084507 9:1.0 10:1.0 11:1.0 12:1.0 13:0.75412844 14:1.0 15:0.75 
1.7411011457443237 1:1.0 2:1.0 3:1.0 4:0.852459016 5:0.210526316 6:0.974747475 7:0.748768473 8:0.014084507 9:1.0 10:1.0 11:1.0 12:1.0 13:0.67706422 14:1.0 15:0.75 
1.7411011457443237 1:0.933333333 2:0.875 3:0.72 4:0.163934426 5:0.315789474 6:0.525252525 7:0.374384236 8:0.281690141 9:0.125 10:0.117647059 11:0.575757576 12:0.341463415 13:0.423853211 14:0.666666667 15:0.5 
1.7411011457443237 1:1.0 2:1.0 3:1.0 4:0.016393443 5:0.157894737 6:0.090909091 7:0.906403941 8:0.014084507 9:1.0 10:1.0 11:1.0 12:1.0 13:0.770642202 14:1.0 15:0.75 
1.7411011457443237 1:1.0 2:1.0 3:1.0 4:0.016393443 5:0.105263158 6:0.090909091 7:0.960591133 8:0.014084507 9:1.0 10:1.0 11:1.0 12:1.0 13:0.858715596 14:1.0 15:0.75 
1.7411011457443237 1:0.933333333 2:0.875 3:0.52 4:0.196721311 5:0.315789474 6:0.424242424 7:0.285714286 8:0.323943662 9:1.0 10:0.058823529 11:0.909090909 12:0.536585366 13:0.211009174 14:0.535087719 15:0.5 
1.7411011457443237 1:1.0 2:1.0 3:1.0 4:0.409836066 5:0.210526316 6:0.96969697 7:0.911330049 8:0.014084507 9:1.0 10:1.0 11:1.0 12:1.0 13:0.906422018 14:1.0 15:0.75 
1.7411011457443237 1:1.0 2:1.0 3:1.0 4:0.93442623 5:0.210526316 6:0.97979798 7:0.674876847 8:0.014084507 9:1.0 10:1.0 11:1.0 12:1.0 13:0.880733945 14:1.0 15:0.75 
1.7411011457443237 1:0.866666667 2:0.8125 3:0.66 4:0.459016393 5:0.368421053 6:0.934343434 7:0.201970443 8:0.253521127 9:0.125 10:0.176470588 11:0.424242424 12:0.487804878 13:0.126605505 14:0.359649123 15:0.5 
1.7411011457443237 1:1.0 2:1.0 3:1.0 4:0.93442623 5:0.210526316 6:0.97979798 7:0.650246305 8:0.014084507 9:1.0 10:1.0 11:1.0 12:1.0 13:0.998165138 14:1.0 15:0.75 
1.7411011457443237 1:1.0 2:1.0 3:1.0 4:0.950819672 5:0.210526316 6:0.984848485 7:0.743842365 8:0.014084507 9:1.0 10:1.0 11:1.0 12:1.0 13:0.711926606 14:1.0 15:0.75 
1.7411011457443237 1:0.933333333 2:0.875 3:0.85 4:0.049180328 5:0.210526316 6:0.196969697 7:0.374384236 8:0.323943662 9:1.0 10:0.058823529 11:1.0 12:1.0 13:0.20733945 14:0.99122807 15:0.5 
1.7411011457443237 1:0.933333333 2:0.875 3:0.22 4:0.196721311 5:0.315789474 6:0.207070707 7:0.231527094 8:0.23943662 9:1.0 10:0.058823529 11:0.787878788 12:0.43902439 13:0.227522936 14:0.412280702 15:0.5 
1.7411011457443237 1:0.933333333 2:0.875 3:0.795 4:0.213114754 5:0.315789474 6:0.727272727 7:0.251231527 8:0.211267606 9:1.0 10:0.058823529 11:0.424242424 12:0.219512195 13:0.473394495 14:0.447368421 15:0.5 
-1.7411011457443237 1:1.0 2:1.0 3:1.0 4:0.967213115 5:0.210526316 6:0.98989899 7:0.527093596 8:0.014084507 9:1.0 10:1.0 11:1.0 12:1.0 13:0.741284404 14:1.0 15:0.75 
-1.7411011457443237 1:0.933333333 2:0.875 3:0.45 4:0.278688525 5:0.315789474 6:0.570707071 7:0.187192118 8:0.197183099 9:1.0 10:0.058823529 11:0.545454545 12:0.317073171 13:0.447706422 14:0.333333333 15:0.5 
-1.457137523086727 1:0.933333333 2:0.875 3:0.85 4:0.049180328 5:0.210526316 6:0.196969697 7:0.374384236 8:0.323943662 9:1.0 10:0.058823529 11:1.0 12:1.0 13:0.519266055 14:0.99122807 15:0.5 
-1.7411011457443237 1:1.0 2:0.9375 3:0.955 4:0.131147541 5:0.263157895 6:0.565656566 7:0.389162562 8:0.014084507 9:0.125 10:1.0 11:1.0 12:0.024390244 13:0.555963303 14:0.692982456 15:0.5 
-1.7411011457443237 1:0.933333333 2:0.875 3:0.69 4:0.131147541 5:0.315789474 6:0.358585859 7:0.315270936 8:0.422535211 9:1.0 10:0.058823529 11:1.0 12:1.0 13:0.236697248 14:0.561403509 15:0.5 
-1.7411011457443237 1:1.0 2:0.9375 3:0.955 4:0.131147541 5:0.263157895 6:0.565656566 7:0.389162562 8:0.014084507 9:0.125 10:1.0 11:1.0 12:0.024390244 13:0.557798165 14:0.692982456 15:0.5 
-1.7411011457443237 1:1.0 2:1.0 3:1.0 4:0.131147541 5:0.210526316 6:0.606060606 7:0.871921182 8:0.014084507 9:1.0 10:1.0 11:1.0 12:1.0 13:0.757798165 14:1.0 15:0.75 
-1.1097654581667682 1:1.0 2:0.9375 3:0.97 4:0.131147541 5:0.263157895 6:0.585858586 7:0.403940887 8:0.014084507 9:0.125 10:1.0 11:1.0 12:0.024390244 13:0.568807339 14:0.719298246 15:0.5 
-1.7411011457443237 1:0.933333333 2:0.875 3:0.85 4:0.049180328 5:0.210526316 6:0.196969697 7:0.39408867 8:0.323943662 9:1.0 10:0.058823529 11:1.0 12:1.0 13:0.403669725 14:0.99122807 15:0.5 
-1.7411011457443237 1:0.933333333 2:0.875 3:0.855 4:0.131147541 5:0.315789474 6:0.47979798 7:0.344827586 8:0.309859155 9:1.0 10:0.058823529 11:0.787878788 12:0.43902439 13:0.379816514 14:0.614035088 15:0.5 
-1.7411011457443237 1:1.0 2:1.0 3:1.0 4:0.131147541 5:0.210526316 6:0.606060606 7:0.881773399 8:0.014084507 9:1.0 10:1.0 11:1.0 12:1.0 13:0.921100917 14:1.0 15:0.75 
-1.674884474327175 1:1.0 2:1.0 3:1.0 4:0.131147541 5:0.052631579 6:0.606060606 7:0.9408867 8:0.014084507 9:1.0 10:1.0 11:1.0 12:1.0 13:0.985321101 14:1.0 15:0.75 
-1.7411011457443237 1:0.8 2:0.75 3:0.495 4:0.606557377 5:0.421052632 6:0.924242424 7:0.167487685 8:0.408450704 9:0.125 10:0.235294118 11:0.03030303 12:0.512195122 13:0.106422018 14:0.298245614 15:0.5 
-1.7411011457443237 1:0.933333333 2:0.875 3:0.855 4:0.131147541 5:0.315789474 6:0.47979798 7:0.36453202 8:0.309859155 9:1.0 10:0.058823529 11:0.787878788 12:0.43902439 13:0.288073394 14:0.649122807 15:0.5 
-1.7411011457443237 1:1.0 2:1.0 3:1.0 4:0.131147541 5:0.210526316 6:0.606060606 7:0.783251232 8:0.014084507 9:1.0 10:1.0 11:1.0 12:1.0 13:0.682568807 14:1.0 15:0.75 
